<?xml version="1.0"?>
<MethodSetup Method="BDT::BDTG">
  <GeneralInfo>
    <Info name="TMVA Release" value="4.2.1 [262657]"/>
    <Info name="ROOT Release" value="6.04/14 [394254]"/>
    <Info name="Creator" value="shadachi"/>
    <Info name="Date" value="Wed Jan 18 14:01:17 2017"/>
    <Info name="Host" value="Linux lcgapp-slc6-physical1.cern.ch 2.6.32-573.8.1.el6.x86_64 #1 SMP Wed Nov 11 15:27:45 CET 2015 x86_64 x86_64 x86_64 GNU/Linux"/>
    <Info name="Dir" value="/data/data4/zp/shadachi/analysis/TMVA/6-1-2"/>
    <Info name="Training events" value="155471"/>
    <Info name="TrainingTime" value="2.48630278e+02"/>
    <Info name="AnalysisType" value="Classification"/>
  </GeneralInfo>
  <Options>
    <Option name="V" modified="Yes">False</Option>
    <Option name="VerbosityLevel" modified="No">Default</Option>
    <Option name="VarTransform" modified="No">None</Option>
    <Option name="H" modified="Yes">False</Option>
    <Option name="CreateMVAPdfs" modified="No">False</Option>
    <Option name="IgnoreNegWeightsInTraining" modified="No">False</Option>
    <Option name="NTrees" modified="Yes">1000</Option>
    <Option name="MaxDepth" modified="Yes">3</Option>
    <Option name="MinNodeSize" modified="Yes">2.5%</Option>
    <Option name="nCuts" modified="Yes">20</Option>
    <Option name="BoostType" modified="Yes">Grad</Option>
    <Option name="AdaBoostR2Loss" modified="No">quadratic</Option>
    <Option name="UseBaggedBoost" modified="Yes">True</Option>
    <Option name="Shrinkage" modified="Yes">1.000000e-01</Option>
    <Option name="AdaBoostBeta" modified="No">5.000000e-01</Option>
    <Option name="UseRandomisedTrees" modified="No">False</Option>
    <Option name="UseNvars" modified="No">4</Option>
    <Option name="UsePoissonNvars" modified="No">True</Option>
    <Option name="BaggedSampleFraction" modified="Yes">5.000000e-01</Option>
    <Option name="UseYesNoLeaf" modified="No">True</Option>
    <Option name="NegWeightTreatment" modified="Yes">ignorenegweightsintraining</Option>
    <Option name="Css" modified="No">1.000000e+00</Option>
    <Option name="Cts_sb" modified="No">1.000000e+00</Option>
    <Option name="Ctb_ss" modified="No">1.000000e+00</Option>
    <Option name="Cbb" modified="No">1.000000e+00</Option>
    <Option name="NodePurityLimit" modified="No">5.000000e-01</Option>
    <Option name="SeparationType" modified="No">giniindex</Option>
    <Option name="DoBoostMonitor" modified="No">False</Option>
    <Option name="UseFisherCuts" modified="No">False</Option>
    <Option name="MinLinCorrForFisher" modified="No">8.000000e-01</Option>
    <Option name="UseExclusiveVars" modified="No">False</Option>
    <Option name="DoPreselection" modified="No">False</Option>
    <Option name="SigToBkgFraction" modified="No">1.000000e+00</Option>
    <Option name="PruneMethod" modified="No">nopruning</Option>
    <Option name="PruneStrength" modified="No">0.000000e+00</Option>
    <Option name="PruningValFraction" modified="No">5.000000e-01</Option>
    <Option name="nEventsMin" modified="No">0</Option>
    <Option name="UseBaggedGrad" modified="No">False</Option>
    <Option name="GradBaggingFraction" modified="No">5.000000e-01</Option>
    <Option name="UseNTrainEvents" modified="No">0</Option>
    <Option name="NNodesMax" modified="No">0</Option>
  </Options>
  <Variables NVar="14">
    <Variable VarIndex="0" Expression="nJet" Label="nJet" Title="N_{jet}" Unit="" Internal="nJet" Type="I" Min="4.00000000e+00" Max="1.30000000e+01"/>
    <Variable VarIndex="1" Expression="meff" Label="meff" Title="m_{eff}(incl.)" Unit="GeV" Internal="meff" Type="F" Min="1.40001562e+03" Max="6.21344531e+03"/>
    <Variable VarIndex="2" Expression="METoverMeff3" Label="METoverMeff3" Title="E_{T}^{miss}/m_{eff}(4j)" Unit="" Internal="METoverMeff3" Type="F" Min="2.00001374e-01" Max="5.62951505e-01"/>
    <Variable VarIndex="3" Expression="jetPt0" Label="jetPt0" Title="p_{T}(j_{1})" Unit="GeV" Internal="jetPt0" Type="F" Min="2.00213882e+02" Max="2.41742017e+03"/>
    <Variable VarIndex="4" Expression="jetPt1" Label="jetPt1" Title="p_{T}(j_{2})" Unit="GeV" Internal="jetPt1" Type="F" Min="5.29020195e+01" Max="1.91137305e+03"/>
    <Variable VarIndex="5" Expression="jetPt2" Label="jetPt2" Title="p_{T}(j_{3})" Unit="GeV" Internal="jetPt2" Type="F" Min="5.01979103e+01" Max="1.05696448e+03"/>
    <Variable VarIndex="6" Expression="jetPt3" Label="jetPt3" Title="p_{T}(j_{4})" Unit="GeV" Internal="jetPt3" Type="F" Min="5.00000343e+01" Max="6.39197144e+02"/>
    <Variable VarIndex="7" Expression="jetEta0" Label="jetEta0" Title="#eta(j_{1})" Unit="" Internal="jetEta0" Type="F" Min="-2.67270541e+00" Max="2.79853439e+00"/>
    <Variable VarIndex="8" Expression="jetEta1" Label="jetEta1" Title="#eta(j_{2})" Unit="" Internal="jetEta1" Type="F" Min="-2.79970956e+00" Max="2.79985881e+00"/>
    <Variable VarIndex="9" Expression="jetEta2" Label="jetEta2" Title="#eta(j_{3})" Unit="" Internal="jetEta2" Type="F" Min="-2.79954076e+00" Max="2.79972219e+00"/>
    <Variable VarIndex="10" Expression="jetEta3" Label="jetEta3" Title="#eta(j_{4})" Unit="" Internal="jetEta3" Type="F" Min="-2.79996204e+00" Max="2.79993916e+00"/>
    <Variable VarIndex="11" Expression="Sp" Label="Sp" Title="Sphericity" Unit="" Internal="Sp" Type="F" Min="9.67974134e-04" Max="9.55055535e-01"/>
    <Variable VarIndex="12" Expression="Ap" Label="Ap" Title="Aplanarity" Unit="" Internal="Ap" Type="F" Min="1.50522709e-07" Max="4.50829953e-01"/>
    <Variable VarIndex="13" Expression="dPhiR" Label="dPhiR" Title="#Delta#phi(jet_{i&gt;3},#vec{E}_{T}^{miss})_{min}" Unit="rad" Internal="dPhiR" Type="F" Min="3.44500540e-06" Max="3.14154315e+00"/>
  </Variables>
  <Spectators NSpec="0">
  </Spectators>
  <Classes NClass="2">
    <Class Name="Signal" Index="0"/>
    <Class Name="Background" Index="1"/>
  </Classes>
  <Transformations NTransformations="0"/>
  <MVAPdfs/>
  <Weights NTrees="1000" AnalysisType="1">
    <BinaryTree type="DecisionTree" boostWeight="1.0000000000000000e+00" itree="0">
      <Node pos="s" depth="0" NCoef="0" IVar="1" Cut="1.8584375000000000e+03" cType="1" res="2.4998298287391663e-01" rms="0.0000000000000000e+00" purity="4.9531731009483337e-01" nType="0">
        <Node pos="l" depth="1" NCoef="0" IVar="12" Cut="5.6695729494094849e-02" cType="1" res="1.2923494796268642e-04" rms="7.6819732785224915e-02" purity="2.2120590507984161e-01" nType="0">
          <Node pos="l" depth="2" NCoef="0" IVar="11" Cut="1.8341706693172455e-01" cType="1" res="0.0000000000000000e+00" rms="0.0000000000000000e+00" purity="1.4105756580829620e-01" nType="0">
            <Node pos="l" depth="3" NCoef="0" IVar="-1" Cut="0.0000000000000000e+00" cType="1" res="-4.0838610380887985e-02" rms="2.3959122598171234e-01" purity="6.1142340302467346e-02" nType="-99"/>
            <Node pos="r" depth="3" NCoef="0" IVar="-1" Cut="0.0000000000000000e+00" cType="1" res="-2.2121017798781395e-02" rms="4.1238862276077271e-01" purity="2.1727110445499420e-01" nType="-99"/>
          </Node>
          <Node pos="r" depth="2" NCoef="0" IVar="1" Cut="1.6182053222656250e+03" cType="1" res="5.0314690452069044e-04" rms="9.8367244005203247e-02" purity="4.5309698581695557e-01" nType="0">
            <Node pos="l" depth="3" NCoef="0" IVar="-1" Cut="0.0000000000000000e+00" cType="1" res="-1.5618737787008286e-02" rms="4.5284295082092285e-01" purity="2.8802534937858582e-01" nType="-99"/>
            <Node pos="r" depth="3" NCoef="0" IVar="-1" Cut="0.0000000000000000e+00" cType="1" res="9.9362786859273911e-03" rms="4.8391798138618469e-01" purity="6.2579107284545898e-01" nType="-99"/>
          </Node>
        </Node>
        <Node pos="r" depth="1" NCoef="0" IVar="12" Cut="2.0185789093375206e-02" cType="1" res="2.4996553361415863e-01" rms="0.0000000000000000e+00" purity="7.7652341127395630e-01" nType="0">
          <Node pos="l" depth="2" NCoef="0" IVar="11" Cut="1.4292071759700775e-01" cType="1" res="5.6485191453248262e-04" rms="2.7813446521759033e-01" purity="5.1177185773849487e-01" nType="0">
            <Node pos="l" depth="3" NCoef="0" IVar="-1" Cut="0.0000000000000000e+00" cType="1" res="-2.4511266499757767e-02" rms="4.5247131586074829e-01" purity="2.8723317384719849e-01" nType="-99"/>
            <Node pos="r" depth="3" NCoef="0" IVar="-1" Cut="0.0000000000000000e+00" cType="1" res="9.7260652109980583e-03" rms="4.8266702890396118e-01" purity="6.3050884008407593e-01" nType="-99"/>
          </Node>
          <Node pos="r" depth="2" NCoef="0" IVar="1" Cut="2.0658266601562500e+03" cType="1" res="2.4995495378971100e-01" rms="0.0000000000000000e+00" purity="8.5772395133972168e-01" nType="0">
            <Node pos="l" depth="3" NCoef="0" IVar="-1" Cut="0.0000000000000000e+00" cType="1" res="1.4578374102711678e-02" rms="4.6016314625740051e-01" purity="6.9557577371597290e-01" nType="-99"/>
            <Node pos="r" depth="3" NCoef="0" IVar="-1" Cut="0.0000000000000000e+00" cType="1" res="2.3613076657056808e-02" rms="2.9423707723617554e-01" purity="9.0425801277160645e-01" nType="-99"/>
          </Node>
        </Node>
      </Node>
    </BinaryTree>
    <BinaryTree type="DecisionTree" boostWeight="1.0000000000000000e+00" itree="1">
      <Node pos="s" depth="0" NCoef="0" IVar="1" Cut="1.8584378662109375e+03" cType="1" res="2.4202924966812134e-01" rms="0.0000000000000000e+00" purity="4.9469706416130066e-01" nType="0">
        <Node pos="l" depth="1" NCoef="0" IVar="12" Cut="4.2936719954013824e-02" cType="1" res="1.2875946413259953e-04" rms="8.0311104655265808e-02" purity="2.1759310364723206e-01" nType="0">
          <Node pos="l" depth="2" NCoef="0" IVar="1" Cut="1.6401369628906250e+03" cType="1" res="1.9207540026400238e-04" rms="7.2369992733001709e-02" purity="1.2573248147964478e-01" nType="0">
            <Node pos="l" depth="3" NCoef="0" IVar="-1" Cut="0.0000000000000000e+00" cType="1" res="-2.2849066182971001e-02" rms="2.6799675822257996e-01" purity="7.8341513872146606e-02" nType="-99"/>
            <Node pos="r" depth="3" NCoef="0" IVar="-1" Cut="0.0000000000000000e+00" cType="1" res="-2.7767067775130272e-02" rms="4.1894704103469849e-01" purity="2.2909075021743774e-01" nType="-99"/>
          </Node>
          <Node pos="r" depth="2" NCoef="0" IVar="1" Cut="1.5964495849609375e+03" cType="1" res="3.9060504059307277e-04" rms="9.4421148300170898e-02" purity="4.0440112352371216e-01" nType="0">
            <Node pos="l" depth="3" NCoef="0" IVar="-1" Cut="0.0000000000000000e+00" cType="1" res="-1.9900543615221977e-02" rms="4.2648240923881531e-01" purity="2.3969006538391113e-01" nType="-99"/>
            <Node pos="r" depth="3" NCoef="0" IVar="-1" Cut="0.0000000000000000e+00" cType="1" res="4.5068124309182167e-03" rms="4.9573770165443420e-01" purity="5.5619001388549805e-01" nType="-99"/>
          </Node>
        </Node>
        <Node pos="r" depth="1" NCoef="0" IVar="11" Cut="2.2860318422317505e-01" cType="1" res="2.4336184561252594e-01" rms="0.0000000000000000e+00" purity="7.7313822507858276e-01" nType="0">
          <Node pos="l" depth="2" NCoef="0" IVar="1" Cut="2.2204230957031250e+03" cType="1" res="5.7550583733245730e-04" rms="2.7384454011917114e-01" purity="5.0622284412384033e-01" nType="0">
            <Node pos="l" depth="3" NCoef="0" IVar="-1" Cut="0.0000000000000000e+00" cType="1" res="-1.8766393885016441e-02" rms="4.6679258346557617e-01" purity="3.2871249318122864e-01" nType="-99"/>
            <Node pos="r" depth="3" NCoef="0" IVar="-1" Cut="0.0000000000000000e+00" cType="1" res="1.2661856599152088e-02" rms="4.6395525336265564e-01" purity="6.7748093605041504e-01" nType="-99"/>
          </Node>
          <Node pos="r" depth="2" NCoef="0" IVar="1" Cut="2.0658447265625000e+03" cType="1" res="2.4250616133213043e-01" rms="0.0000000000000000e+00" purity="8.5054636001586914e-01" nType="0">
            <Node pos="l" depth="3" NCoef="0" IVar="-1" Cut="0.0000000000000000e+00" cType="1" res="1.3121470808982849e-02" rms="4.6174210309982300e-01" purity="6.9132941961288452e-01" nType="-99"/>
            <Node pos="r" depth="3" NCoef="0" IVar="-1" Cut="0.0000000000000000e+00" cType="1" res="2.2469529882073402e-02" rms="3.0306193232536316e-01" purity="8.9735728502273560e-01" nType="-99"/>
          </Node>
        </Node>
      </Node>
    </BinaryTree>
    <BinaryTree type="DecisionTree" boostWeight="1.0000000000000000e+00" itree="2">
      <Node pos="s" depth="0" NCoef="0" IVar="1" Cut="1.7926975097656250e+03" cType="1" res="6.4577427110634744e-05" rms="1.8024611473083496e-01" purity="4.9888426065444946e-01" nType="0">
        <Node pos="l" depth="1" NCoef="0" IVar="12" Cut="4.1757263243198395e-02" cType="1" res="1.4345694216899574e-04" rms="7.8280195593833923e-02" purity="1.8721176683902740e-01" nType="0">
          <Node pos="l" depth="2" NCoef="0" IVar="11" Cut="2.1557654440402985e-01" cType="1" res="0.0000000000000000e+00" rms="0.0000000000000000e+00" purity="1.0108022391796112e-01" nType="0">
            <Node pos="l" depth="3" NCoef="0" IVar="-1" Cut="0.0000000000000000e+00" cType="1" res="-2.3280708119273186e-02" rms="2.2496648132801056e-01" purity="5.3524509072303772e-02" nType="-99"/>
            <Node pos="r" depth="3" NCoef="0" IVar="-1" Cut="0.0000000000000000e+00" cType="1" res="-2.5366872549057007e-02" rms="3.8186249136924744e-01" purity="1.7694753408432007e-01" nType="-99"/>
          </Node>
          <Node pos="r" depth="2" NCoef="0" IVar="1" Cut="1.5496088867187500e+03" cType="1" res="4.2741149081848562e-04" rms="1.0076124221086502e-01" purity="3.5769811272621155e-01" nType="0">
            <Node pos="l" depth="3" NCoef="0" IVar="-1" Cut="0.0000000000000000e+00" cType="1" res="-2.2059200331568718e-02" rms="4.0907028317451477e-01" purity="2.1304008364677429e-01" nType="-99"/>
            <Node pos="r" depth="3" NCoef="0" IVar="-1" Cut="0.0000000000000000e+00" cType="1" res="-2.3815541062504053e-03" rms="4.9689272046089172e-01" purity="4.6809640526771545e-01" nType="-99"/>
          </Node>
        </Node>
        <Node pos="r" depth="1" NCoef="0" IVar="11" Cut="1.8001571297645569e-01" cType="1" res="1.1744594667106867e-04" rms="3.2920107245445251e-01" purity="7.5404566526412964e-01" nType="0">
          <Node pos="l" depth="2" NCoef="0" IVar="1" Cut="2.2863085937500000e+03" cType="1" res="6.9778232136741281e-04" rms="2.2850765287876129e-01" purity="4.0990921854972839e-01" nType="0">
            <Node pos="l" depth="3" NCoef="0" IVar="-1" Cut="0.0000000000000000e+00" cType="1" res="-2.5211038067936897e-02" rms="4.3861696124076843e-01" purity="2.6695477962493896e-01" nType="-99"/>
            <Node pos="r" depth="3" NCoef="0" IVar="-1" Cut="0.0000000000000000e+00" cType="1" res="9.5517346635460854e-03" rms="4.7522449493408203e-01" purity="6.4418655633926392e-01" nType="-99"/>
          </Node>
          <Node pos="r" depth="2" NCoef="0" IVar="1" Cut="2.1479833984375000e+03" cType="1" res="1.4121414278633893e-04" rms="3.4480169415473938e-01" purity="8.2369053363800049e-01" nType="0">
            <Node pos="l" depth="3" NCoef="0" IVar="-1" Cut="0.0000000000000000e+00" cType="1" res="1.3618695549666882e-02" rms="4.5880129933357239e-01" purity="6.9155377149581909e-01" nType="-99"/>
            <Node pos="r" depth="3" NCoef="0" IVar="-1" Cut="0.0000000000000000e+00" cType="1" res="2.1809468045830727e-02" rms="2.9662269353866577e-01" purity="9.0198355913162231e-01" nType="-99"/>
          </Node>
        </Node>
      </Node>
    </BinaryTree>
    <BinaryTree type="DecisionTree" boostWeight="1.0000000000000000e+00" itree="3">
      <Node pos="s" depth="0" NCoef="0" IVar="1" Cut="1.8157011718750000e+03" cType="1" res="2.2965770959854126e-01" rms="0.0000000000000000e+00" purity="5.0095444917678833e-01" nType="0">
        <Node pos="l" depth="1" NCoef="0" IVar="12" Cut="3.9666391909122467e-02" cType="1" res="1.3733888044953346e-04" rms="7.2548829019069672e-02" purity="2.0471924543380737e-01" nType="0">
          <Node pos="l" depth="2" NCoef="0" IVar="1" Cut="1.6375360107421875e+03" cType="1" res="2.1228699188213795e-04" rms="6.2406916171312332e-02" purity="1.1247720569372177e-01" nType="0">
            <Node pos="l" depth="3" NCoef="0" IVar="-1" Cut="0.0000000000000000e+00" cType="1" res="-2.2114975377917290e-02" rms="2.6250839233398438e-01" purity="7.4814699590206146e-02" nType="-99"/>
            <Node pos="r" depth="3" NCoef="0" IVar="-1" Cut="0.0000000000000000e+00" cType="1" res="-2.7354922145605087e-02" rms="4.0206292271614075e-01" purity="2.0470210909843445e-01" nType="-99"/>
          </Node>
          <Node pos="r" depth="2" NCoef="0" IVar="1" Cut="1.6177238769531250e+03" cType="1" res="3.8900587242096663e-04" rms="8.8154681026935577e-02" purity="3.7374842166900635e-01" nType="0">
            <Node pos="l" depth="3" NCoef="0" IVar="-1" Cut="0.0000000000000000e+00" cType="1" res="-1.7235180363059044e-02" rms="4.3282407522201538e-01" purity="2.5171414017677307e-01" nType="-99"/>
            <Node pos="r" depth="3" NCoef="0" IVar="-1" Cut="0.0000000000000000e+00" cType="1" res="2.7499515563249588e-03" rms="4.9669292569160461e-01" purity="5.3626847267150879e-01" nType="-99"/>
          </Node>
        </Node>
        <Node pos="r" depth="1" NCoef="0" IVar="11" Cut="1.8319991230964661e-01" cType="1" res="2.3147273063659668e-01" rms="0.0000000000000000e+00" purity="7.6574701070785522e-01" nType="0">
          <Node pos="l" depth="2" NCoef="0" IVar="1" Cut="2.2856452636718750e+03" cType="1" res="7.3154806159436703e-04" rms="2.2724121809005737e-01" purity="4.2663547396659851e-01" nType="0">
            <Node pos="l" depth="3" NCoef="0" IVar="-1" Cut="0.0000000000000000e+00" cType="1" res="-2.2144496440887451e-02" rms="4.4243761897087097e-01" purity="2.7503272891044617e-01" nType="-99"/>
            <Node pos="r" depth="3" NCoef="0" IVar="-1" Cut="0.0000000000000000e+00" cType="1" res="1.0659323073923588e-02" rms="4.7224056720733643e-01" purity="6.5416026115417480e-01" nType="-99"/>
          </Node>
          <Node pos="r" depth="2" NCoef="0" IVar="5" Cut="1.7170294189453125e+02" cType="1" res="2.3005096614360809e-01" rms="0.0000000000000000e+00" purity="8.3412879705429077e-01" nType="0">
            <Node pos="l" depth="3" NCoef="0" IVar="-1" Cut="0.0000000000000000e+00" cType="1" res="7.6048113405704498e-03" rms="4.7978013753890991e-01" purity="6.2656629085540771e-01" nType="-99"/>
            <Node pos="r" depth="3" NCoef="0" IVar="-1" Cut="0.0000000000000000e+00" cType="1" res="2.1123088896274567e-02" rms="3.2627573609352112e-01" purity="8.7673908472061157e-01" nType="-99"/>
          </Node>
        </Node>
      </Node>
    </BinaryTree>
    <BinaryTree type="DecisionTree" boostWeight="1.0000000000000000e+00" itree="4">
      <Node pos="s" depth="0" NCoef="0" IVar="1" Cut="1.8157008056640625e+03" cType="1" res="2.2414311766624451e-01" rms="0.0000000000000000e+00" purity="5.0071352720260620e-01" nType="0">
        <Node pos="l" depth="1" NCoef="0" IVar="11" Cut="2.1494577825069427e-01" cType="1" res="1.3888365356251597e-04" rms="7.4808731675148010e-02" purity="2.0832210779190063e-01" nType="0">
          <Node pos="l" depth="2" NCoef="0" IVar="11" Cut="1.0307710617780685e-01" cType="1" res="0.0000000000000000e+00" rms="0.0000000000000000e+00" purity="6.8499900400638580e-02" nType="0">
            <Node pos="l" depth="3" NCoef="0" IVar="-1" Cut="0.0000000000000000e+00" cType="1" res="-3.6156989634037018e-02" rms="1.5770733356475830e-01" purity="2.5448637083172798e-02" nType="-99"/>
            <Node pos="r" depth="3" NCoef="0" IVar="-1" Cut="0.0000000000000000e+00" cType="1" res="-2.8654301539063454e-02" rms="3.1065317988395691e-01" purity="1.0865697264671326e-01" nType="-99"/>
          </Node>
          <Node pos="r" depth="2" NCoef="0" IVar="1" Cut="1.6177608642578125e+03" cType="1" res="2.4854819639585912e-04" rms="9.0026468038558960e-02" purity="3.1872773170471191e-01" nType="0">
            <Node pos="l" depth="3" NCoef="0" IVar="-1" Cut="0.0000000000000000e+00" cType="1" res="-1.9328627735376358e-02" rms="4.0868213772773743e-01" purity="2.1409851312637329e-01" nType="-99"/>
            <Node pos="r" depth="3" NCoef="0" IVar="-1" Cut="0.0000000000000000e+00" cType="1" res="-5.4214830743148923e-04" rms="4.9322667717933655e-01" purity="4.7558134794235229e-01" nType="-99"/>
          </Node>
        </Node>
        <Node pos="r" depth="1" NCoef="0" IVar="12" Cut="2.1045016124844551e-02" cType="1" res="2.2599723935127258e-01" rms="0.0000000000000000e+00" purity="7.5971215963363647e-01" nType="0">
          <Node pos="l" depth="2" NCoef="0" IVar="1" Cut="2.3060036621093750e+03" cType="1" res="4.8710944247432053e-04" rms="2.7184426784515381e-01" purity="4.9772480130195618e-01" nType="0">
            <Node pos="l" depth="3" NCoef="0" IVar="-1" Cut="0.0000000000000000e+00" cType="1" res="-1.3838311657309532e-02" rms="4.6794024109840393e-01" purity="3.6059653759002686e-01" nType="-99"/>
            <Node pos="r" depth="3" NCoef="0" IVar="-1" Cut="0.0000000000000000e+00" cType="1" res="1.1883734725415707e-02" rms="4.5212751626968384e-01" purity="7.0320510864257812e-01" nType="-99"/>
          </Node>
          <Node pos="r" depth="2" NCoef="0" IVar="1" Cut="2.0037833251953125e+03" cType="1" res="2.2258150577545166e-01" rms="0.0000000000000000e+00" purity="8.4823578596115112e-01" nType="0">
            <Node pos="l" depth="3" NCoef="0" IVar="-1" Cut="0.0000000000000000e+00" cType="1" res="9.8968762904405594e-03" rms="4.7049641609191895e-01" purity="6.5267860889434814e-01" nType="-99"/>
            <Node pos="r" depth="3" NCoef="0" IVar="-1" Cut="0.0000000000000000e+00" cType="1" res="2.1261952817440033e-02" rms="3.0167466402053833e-01" purity="8.9676105976104736e-01" nType="-99"/>
          </Node>
        </Node>
      </Node>
    </BinaryTree>
    <BinaryTree type="DecisionTree" boostWeight="1.0000000000000000e+00" itree="5">
      <Node pos="s" depth="0" NCoef="0" IVar="1" Cut="1.8584459228515625e+03" cType="1" res="6.4597115851938725e-05" rms="2.0735029876232147e-01" purity="5.0474560260772705e-01" nType="0">
        <Node pos="l" depth="1" NCoef="0" IVar="12" Cut="3.9667062461376190e-02" cType="1" res="1.3023109931964427e-04" rms="7.0233456790447235e-02" purity="2.2450980544090271e-01" nType="0">
          <Node pos="l" depth="2" NCoef="0" IVar="1" Cut="1.5746549072265625e+03" cType="1" res="2.0284851780161262e-04" rms="5.4684843868017197e-02" purity="1.1900881677865982e-01" nType="0">
            <Node pos="l" depth="3" NCoef="0" IVar="-1" Cut="0.0000000000000000e+00" cType="1" res="-3.0414847657084465e-02" rms="2.3654402792453766e-01" purity="6.0118533670902252e-02" nType="-99"/>
            <Node pos="r" depth="3" NCoef="0" IVar="-1" Cut="0.0000000000000000e+00" cType="1" res="-2.4350097402930260e-02" rms="3.8613760471343994e-01" purity="1.8701916933059692e-01" nType="-99"/>
          </Node>
          <Node pos="r" depth="2" NCoef="0" IVar="1" Cut="1.5964613037109375e+03" cType="1" res="3.6378583172336221e-04" rms="9.1738142073154449e-02" purity="4.1371390223503113e-01" nType="0">
            <Node pos="l" depth="3" NCoef="0" IVar="-1" Cut="0.0000000000000000e+00" cType="1" res="-1.6659790650010109e-02" rms="4.2958068847656250e-01" purity="2.4600210785865784e-01" nType="-99"/>
            <Node pos="r" depth="3" NCoef="0" IVar="-1" Cut="0.0000000000000000e+00" cType="1" res="5.0140679813921452e-03" rms="4.9137261509895325e-01" purity="5.6634730100631714e-01" nType="-99"/>
          </Node>
        </Node>
        <Node pos="r" depth="1" NCoef="0" IVar="12" Cut="2.0618569105863571e-02" cType="1" res="1.2817373499274254e-04" rms="3.8254886865615845e-01" purity="7.8055429458618164e-01" nType="0">
          <Node pos="l" depth="2" NCoef="0" IVar="11" Cut="1.4533938467502594e-01" cType="1" res="5.3918850608170033e-04" rms="2.7920937538146973e-01" purity="5.1897823810577393e-01" nType="0">
            <Node pos="l" depth="3" NCoef="0" IVar="-1" Cut="0.0000000000000000e+00" cType="1" res="-1.9581465050578117e-02" rms="4.4827806949615479e-01" purity="2.9802528023719788e-01" nType="-99"/>
            <Node pos="r" depth="3" NCoef="0" IVar="-1" Cut="0.0000000000000000e+00" cType="1" res="8.2464823499321938e-03" rms="4.7364035248756409e-01" purity="6.3916319608688354e-01" nType="-99"/>
          </Node>
          <Node pos="r" depth="2" NCoef="0" IVar="13" Cut="2.9935812950134277e-01" cType="1" res="1.6814432456158102e-04" rms="4.0000113844871521e-01" purity="8.6212605237960815e-01" nType="0">
            <Node pos="l" depth="3" NCoef="0" IVar="-1" Cut="0.0000000000000000e+00" cType="1" res="1.0599247179925442e-02" rms="4.4889652729034424e-01" purity="7.0737564563751221e-01" nType="-99"/>
            <Node pos="r" depth="3" NCoef="0" IVar="-1" Cut="0.0000000000000000e+00" cType="1" res="2.1201692521572113e-02" rms="2.9691967368125916e-01" purity="8.9918041229248047e-01" nType="-99"/>
          </Node>
        </Node>
      </Node>
    </BinaryTree>
    <BinaryTree type="DecisionTree" boostWeight="1.0000000000000000e+00" itree="6">
      <Node pos="s" depth="0" NCoef="0" IVar="1" Cut="1.8381876220703125e+03" cType="1" res="2.1257564425468445e-01" rms="0.0000000000000000e+00" purity="5.0174564123153687e-01" nType="0">
        <Node pos="l" depth="1" NCoef="0" IVar="12" Cut="4.1757263243198395e-02" cType="1" res="1.3469446275848895e-04" rms="7.1224667131900787e-02" purity="2.1508625149726868e-01" nType="0">
          <Node pos="l" depth="2" NCoef="0" IVar="11" Cut="1.4513885974884033e-01" cType="1" res="0.0000000000000000e+00" rms="0.0000000000000000e+00" purity="1.2425772845745087e-01" nType="0">
            <Node pos="l" depth="3" NCoef="0" IVar="-1" Cut="0.0000000000000000e+00" cType="1" res="-1.9820962101221085e-02" rms="1.9828645884990692e-01" purity="4.1172321885824203e-02" nType="-99"/>
            <Node pos="r" depth="3" NCoef="0" IVar="-1" Cut="0.0000000000000000e+00" cType="1" res="-2.1355640143156052e-02" rms="3.9131137728691101e-01" purity="1.9121147692203522e-01" nType="-99"/>
          </Node>
          <Node pos="r" depth="2" NCoef="0" IVar="1" Cut="1.5251579589843750e+03" cType="1" res="4.0432359674014151e-04" rms="9.5047220587730408e-02" purity="3.9690533280372620e-01" nType="0">
            <Node pos="l" depth="3" NCoef="0" IVar="-1" Cut="0.0000000000000000e+00" cType="1" res="-1.7707610502839088e-02" rms="4.0112066268920898e-01" purity="2.0204328000545502e-01" nType="-99"/>
            <Node pos="r" depth="3" NCoef="0" IVar="-1" Cut="0.0000000000000000e+00" cType="1" res="4.3391942745074630e-04" rms="4.9422636628150940e-01" purity="4.9500742554664612e-01" nType="-99"/>
          </Node>
        </Node>
        <Node pos="r" depth="1" NCoef="0" IVar="11" Cut="1.6855658590793610e-01" cType="1" res="2.1544116735458374e-01" rms="0.0000000000000000e+00" purity="7.7074086666107178e-01" nType="0">
          <Node pos="l" depth="2" NCoef="0" IVar="1" Cut="2.1629152832031250e+03" cType="1" res="8.7068957509472966e-04" rms="2.2504949569702148e-01" purity="3.9378830790519714e-01" nType="0">
            <Node pos="l" depth="3" NCoef="0" IVar="-1" Cut="0.0000000000000000e+00" cType="1" res="-2.7766650542616844e-02" rms="4.1316080093383789e-01" purity="2.2750909626483917e-01" nType="-99"/>
            <Node pos="r" depth="3" NCoef="0" IVar="-1" Cut="0.0000000000000000e+00" cType="1" res="4.0260301902890205e-03" rms="4.8597198724746704e-01" purity="5.6066763401031494e-01" nType="-99"/>
          </Node>
          <Node pos="r" depth="2" NCoef="0" IVar="5" Cut="1.6840443420410156e+02" cType="1" res="0.0000000000000000e+00" rms="1.9606942310929298e-02" purity="8.3475410938262939e-01" nType="0">
            <Node pos="l" depth="3" NCoef="0" IVar="-1" Cut="0.0000000000000000e+00" cType="1" res="5.8874678798019886e-03" rms="4.7960731387138367e-01" purity="6.1666238307952881e-01" nType="-99"/>
            <Node pos="r" depth="3" NCoef="0" IVar="-1" Cut="0.0000000000000000e+00" cType="1" res="1.9430063664913177e-02" rms="3.2605084776878357e-01" purity="8.7534183263778687e-01" nType="-99"/>
          </Node>
        </Node>
      </Node>
    </BinaryTree>
    <BinaryTree type="DecisionTree" boostWeight="1.0000000000000000e+00" itree="7">
      <Node pos="s" depth="0" NCoef="0" IVar="1" Cut="1.8584375000000000e+03" cType="1" res="6.4738334913272411e-05" rms="2.0792190730571747e-01" purity="4.9746897816658020e-01" nType="0">
        <Node pos="l" depth="1" NCoef="0" IVar="12" Cut="6.4404405653476715e-02" cType="1" res="1.2844020966440439e-04" rms="7.9216860234737396e-02" purity="2.2365149855613708e-01" nType="0">
          <Node pos="l" depth="2" NCoef="0" IVar="1" Cut="1.6401367187500000e+03" cType="1" res="0.0000000000000000e+00" rms="0.0000000000000000e+00" purity="1.5564282238483429e-01" nType="0">
            <Node pos="l" depth="3" NCoef="0" IVar="-1" Cut="0.0000000000000000e+00" cType="1" res="-1.9211949780583382e-02" rms="2.9575332999229431e-01" purity="9.8866887390613556e-02" nType="-99"/>
            <Node pos="r" depth="3" NCoef="0" IVar="-1" Cut="0.0000000000000000e+00" cType="1" res="-1.5444601885974407e-02" rms="4.3672499060630798e-01" purity="2.7444276213645935e-01" nType="-99"/>
          </Node>
          <Node pos="r" depth="2" NCoef="0" IVar="1" Cut="1.6400241699218750e+03" cType="1" res="5.9245084412395954e-04" rms="1.0768823325634003e-01" purity="4.6934369206428528e-01" nType="0">
            <Node pos="l" depth="3" NCoef="0" IVar="-1" Cut="0.0000000000000000e+00" cType="1" res="-1.0613556951284409e-02" rms="4.6432921290397644e-01" purity="3.2220134139060974e-01" nType="-99"/>
            <Node pos="r" depth="3" NCoef="0" IVar="-1" Cut="0.0000000000000000e+00" cType="1" res="1.0608173906803131e-02" rms="4.7566461563110352e-01" purity="6.4941012859344482e-01" nType="-99"/>
          </Node>
        </Node>
        <Node pos="r" depth="1" NCoef="0" IVar="11" Cut="2.2595077753067017e-01" cType="1" res="1.3052998110651970e-04" rms="3.8209629058837891e-01" purity="7.7574163675308228e-01" nType="0">
          <Node pos="l" depth="2" NCoef="0" IVar="13" Cut="4.4886091351509094e-01" cType="1" res="5.9422006597742438e-04" rms="2.6045858860015869e-01" purity="4.9999627470970154e-01" nType="0">
            <Node pos="l" depth="3" NCoef="0" IVar="-1" Cut="0.0000000000000000e+00" cType="1" res="-2.1840704604983330e-02" rms="4.3355441093444824e-01" purity="2.8012293577194214e-01" nType="-99"/>
            <Node pos="r" depth="3" NCoef="0" IVar="-1" Cut="0.0000000000000000e+00" cType="1" res="7.1905688382685184e-03" rms="4.6986454725265503e-01" purity="5.9634935855865479e-01" nType="-99"/>
          </Node>
          <Node pos="r" depth="2" NCoef="0" IVar="5" Cut="1.9559416198730469e+02" cType="1" res="0.0000000000000000e+00" rms="4.0166595578193665e-01" purity="8.5336470603942871e-01" nType="0">
            <Node pos="l" depth="3" NCoef="0" IVar="-1" Cut="0.0000000000000000e+00" cType="1" res="1.0249547660350800e-02" rms="4.5471867918968201e-01" purity="6.9712066650390625e-01" nType="-99"/>
            <Node pos="r" depth="3" NCoef="0" IVar="-1" Cut="0.0000000000000000e+00" cType="1" res="1.9944626837968826e-02" rms="3.0046612024307251e-01" purity="8.9794212579727173e-01" nType="-99"/>
          </Node>
        </Node>
      </Node>
    </BinaryTree>
    <BinaryTree type="DecisionTree" boostWeight="1.0000000000000000e+00" itree="8">
      <Node pos="s" depth="0" NCoef="0" IVar="1" Cut="1.9888602294921875e+03" cType="1" res="2.0353370904922485e-01" rms="0.0000000000000000e+00" purity="5.0062477588653564e-01" nType="0">
        <Node pos="l" depth="1" NCoef="0" IVar="11" Cut="3.5116782784461975e-01" cType="1" res="1.1285776417935267e-04" rms="7.4520543217658997e-02" purity="2.6297646760940552e-01" nType="0">
          <Node pos="l" depth="2" NCoef="0" IVar="1" Cut="1.6523436279296875e+03" cType="1" res="1.7580439453013241e-04" rms="6.7652978003025055e-02" purity="1.5642669796943665e-01" nType="0">
            <Node pos="l" depth="3" NCoef="0" IVar="-1" Cut="0.0000000000000000e+00" cType="1" res="-2.8117459267377853e-02" rms="2.7016744017601013e-01" purity="8.1754676997661591e-02" nType="-99"/>
            <Node pos="r" depth="3" NCoef="0" IVar="-1" Cut="0.0000000000000000e+00" cType="1" res="-1.8502393737435341e-02" rms="4.3059235811233521e-01" purity="2.7870815992355347e-01" nType="-99"/>
          </Node>
          <Node pos="r" depth="2" NCoef="0" IVar="1" Cut="1.6523109130859375e+03" cType="1" res="3.1520181801170111e-04" rms="8.5462078452110291e-02" purity="4.5401084423065186e-01" nType="0">
            <Node pos="l" depth="3" NCoef="0" IVar="-1" Cut="0.0000000000000000e+00" cType="1" res="-1.3104548677802086e-02" rms="4.3475618958473206e-01" purity="2.6542550325393677e-01" nType="-99"/>
            <Node pos="r" depth="3" NCoef="0" IVar="-1" Cut="0.0000000000000000e+00" cType="1" res="9.4286892563104630e-03" rms="4.7096368670463562e-01" purity="6.3218873739242554e-01" nType="-99"/>
          </Node>
        </Node>
        <Node pos="r" depth="1" NCoef="0" IVar="12" Cut="2.0156266167759895e-02" cType="1" res="0.0000000000000000e+00" rms="2.0040338858962059e-02" purity="8.2589161396026611e-01" nType="0">
          <Node pos="l" depth="2" NCoef="0" IVar="5" Cut="1.8153930664062500e+02" cType="1" res="0.0000000000000000e+00" rms="0.0000000000000000e+00" purity="5.9429967403411865e-01" nType="0">
            <Node pos="l" depth="3" NCoef="0" IVar="-1" Cut="0.0000000000000000e+00" cType="1" res="-6.0655269771814346e-03" rms="4.8420003056526184e-01" purity="4.3680477142333984e-01" nType="-99"/>
            <Node pos="r" depth="3" NCoef="0" IVar="-1" Cut="0.0000000000000000e+00" cType="1" res="1.2832631357014179e-02" rms="4.3482017517089844e-01" purity="7.1874016523361206e-01" nType="-99"/>
          </Node>
          <Node pos="r" depth="2" NCoef="0" IVar="13" Cut="2.9922235012054443e-01" cType="1" res="2.5121575163211673e-05" rms="2.3616364225745201e-02" purity="8.9230114221572876e-01" nType="0">
            <Node pos="l" depth="3" NCoef="0" IVar="-1" Cut="0.0000000000000000e+00" cType="1" res="1.3107429258525372e-02" rms="4.1295814514160156e-01" purity="7.7348369359970093e-01" nType="-99"/>
            <Node pos="r" depth="3" NCoef="0" IVar="-1" Cut="0.0000000000000000e+00" cType="1" res="2.0398123189806938e-02" rms="2.6968801021575928e-01" purity="9.1841286420822144e-01" nType="-99"/>
          </Node>
        </Node>
      </Node>
    </BinaryTree>
    <BinaryTree type="DecisionTree" boostWeight="1.0000000000000000e+00" itree="9">
      <Node pos="s" depth="0" NCoef="0" IVar="1" Cut="1.8381872558593750e+03" cType="1" res="0.0000000000000000e+00" rms="0.0000000000000000e+00" purity="5.0454354286193848e-01" nType="0">
        <Node pos="l" depth="1" NCoef="0" IVar="12" Cut="3.9666391909122467e-02" cType="1" res="1.3353515532799065e-04" rms="7.7933095395565033e-02" purity="2.1300704777240753e-01" nType="0">
          <Node pos="l" depth="2" NCoef="0" IVar="1" Cut="1.6295317382812500e+03" cType="1" res="0.0000000000000000e+00" rms="0.0000000000000000e+00" purity="1.1089571565389633e-01" nType="0">
            <Node pos="l" depth="3" NCoef="0" IVar="-1" Cut="0.0000000000000000e+00" cType="1" res="-2.7442432940006256e-02" rms="2.4877928197383881e-01" purity="6.7080363631248474e-02" nType="-99"/>
            <Node pos="r" depth="3" NCoef="0" IVar="-1" Cut="0.0000000000000000e+00" cType="1" res="-2.0882384851574898e-02" rms="3.9497408270835876e-01" purity="1.9978526234626770e-01" nType="-99"/>
          </Node>
          <Node pos="r" depth="2" NCoef="0" IVar="1" Cut="1.5043527832031250e+03" cType="1" res="3.7315080408006907e-04" rms="1.0405823588371277e-01" purity="3.9623576402664185e-01" nType="0">
            <Node pos="l" depth="3" NCoef="0" IVar="-1" Cut="0.0000000000000000e+00" cType="1" res="-1.6229283064603806e-02" rms="3.8379389047622681e-01" purity="1.8073618412017822e-01" nType="-99"/>
            <Node pos="r" depth="3" NCoef="0" IVar="-1" Cut="0.0000000000000000e+00" cType="1" res="5.2111496916040778e-04" rms="4.9058064818382263e-01" purity="4.8351648449897766e-01" nType="-99"/>
          </Node>
        </Node>
        <Node pos="r" depth="1" NCoef="0" IVar="11" Cut="1.8319991230964661e-01" cType="1" res="0.0000000000000000e+00" rms="0.0000000000000000e+00" purity="7.7751660346984863e-01" nType="0">
          <Node pos="l" depth="2" NCoef="0" IVar="1" Cut="2.1559619140625000e+03" cType="1" res="7.8062806278467178e-04" rms="2.5781309604644775e-01" purity="4.2754641175270081e-01" nType="0">
            <Node pos="l" depth="3" NCoef="0" IVar="-1" Cut="0.0000000000000000e+00" cType="1" res="-2.2791070863604546e-02" rms="4.2868599295616150e-01" purity="2.5614389777183533e-01" nType="-99"/>
            <Node pos="r" depth="3" NCoef="0" IVar="-1" Cut="0.0000000000000000e+00" cType="1" res="5.2647851407527924e-03" rms="4.8036193847656250e-01" purity="5.8232969045639038e-01" nType="-99"/>
          </Node>
          <Node pos="r" depth="2" NCoef="0" IVar="1" Cut="2.2346723632812500e+03" cType="1" res="0.0000000000000000e+00" rms="0.0000000000000000e+00" purity="8.4426146745681763e-01" nType="0">
            <Node pos="l" depth="3" NCoef="0" IVar="-1" Cut="0.0000000000000000e+00" cType="1" res="1.2931560166180134e-02" rms="4.2827683687210083e-01" purity="7.4261480569839478e-01" nType="-99"/>
            <Node pos="r" depth="3" NCoef="0" IVar="-1" Cut="0.0000000000000000e+00" cType="1" res="1.9445942714810371e-02" rms="2.7236807346343994e-01" purity="9.1729116439819336e-01" nType="-99"/>
          </Node>
        </Node>
      </Node>
    </BinaryTree>
    <BinaryTree type="DecisionTree" boostWeight="1.0000000000000000e+00" itree="10">
      <Node pos="s" depth="0" NCoef="0" IVar="1" Cut="2.0084222412109375e+03" cType="1" res="0.0000000000000000e+00" rms="0.0000000000000000e+00" purity="4.9949637055397034e-01" nType="0">
        <Node pos="l" depth="1" NCoef="0" IVar="12" Cut="4.2936321347951889e-02" cType="1" res="1.1000368976965547e-04" rms="8.7795071303844452e-02" purity="2.6975497603416443e-01" nType="0">
          <Node pos="l" depth="2" NCoef="0" IVar="5" Cut="1.8781768798828125e+02" cType="1" res="1.7231308447662741e-04" rms="6.5489962697029114e-02" purity="1.5244480967521667e-01" nType="0">
            <Node pos="l" depth="3" NCoef="0" IVar="-1" Cut="0.0000000000000000e+00" cType="1" res="-2.6164593175053596e-02" rms="2.9589131474494934e-01" purity="1.0312012583017349e-01" nType="-99"/>
            <Node pos="r" depth="3" NCoef="0" IVar="-1" Cut="0.0000000000000000e+00" cType="1" res="-1.2737250886857510e-02" rms="4.3315607309341431e-01" purity="2.8663071990013123e-01" nType="-99"/>
          </Node>
          <Node pos="r" depth="2" NCoef="0" IVar="1" Cut="1.6606782226562500e+03" cType="1" res="3.0420892289839685e-04" rms="1.1723472177982330e-01" purity="4.7685939073562622e-01" nType="0">
            <Node pos="l" depth="3" NCoef="0" IVar="-1" Cut="0.0000000000000000e+00" cType="1" res="-1.1719281785190105e-02" rms="4.4652560353279114e-01" purity="2.8766784071922302e-01" nType="-99"/>
            <Node pos="r" depth="3" NCoef="0" IVar="-1" Cut="0.0000000000000000e+00" cType="1" res="9.6196215599775314e-03" rms="4.6565490961074829e-01" purity="6.6149622201919556e-01" nType="-99"/>
          </Node>
        </Node>
        <Node pos="r" depth="1" NCoef="0" IVar="12" Cut="2.0156266167759895e-02" cType="1" res="0.0000000000000000e+00" rms="0.0000000000000000e+00" purity="8.2959860563278198e-01" nType="0">
          <Node pos="l" depth="2" NCoef="0" IVar="5" Cut="1.5242759704589844e+02" cType="1" res="6.9917168002575636e-04" rms="3.0693084001541138e-01" purity="5.9962981939315796e-01" nType="0">
            <Node pos="l" depth="3" NCoef="0" IVar="-1" Cut="0.0000000000000000e+00" cType="1" res="-8.4523158147931099e-03" rms="4.8014071583747864e-01" purity="4.0796399116516113e-01" nType="-99"/>
            <Node pos="r" depth="3" NCoef="0" IVar="-1" Cut="0.0000000000000000e+00" cType="1" res="1.0459085926413536e-02" rms="4.4504556059837341e-01" purity="6.9009363651275635e-01" nType="-99"/>
          </Node>
          <Node pos="r" depth="2" NCoef="0" IVar="13" Cut="2.9911538958549500e-01" cType="1" res="0.0000000000000000e+00" rms="0.0000000000000000e+00" purity="8.9677196741104126e-01" nType="0">
            <Node pos="l" depth="3" NCoef="0" IVar="-1" Cut="0.0000000000000000e+00" cType="1" res="1.2874178588390350e-02" rms="4.0481489896774292e-01" purity="7.8477239608764648e-01" nType="-99"/>
            <Node pos="r" depth="3" NCoef="0" IVar="-1" Cut="0.0000000000000000e+00" cType="1" res="1.9698770716786385e-02" rms="2.6276880502700806e-01" purity="9.2296516895294189e-01" nType="-99"/>
          </Node>
        </Node>
      </Node>
    </BinaryTree>
    <BinaryTree type="DecisionTree" boostWeight="1.0000000000000000e+00" itree="11">
      <Node pos="s" depth="0" NCoef="0" IVar="1" Cut="1.8381876220703125e+03" cType="1" res="0.0000000000000000e+00" rms="0.0000000000000000e+00" purity="4.9794983863830566e-01" nType="0">
        <Node pos="l" depth="1" NCoef="0" IVar="11" Cut="2.6229399442672729e-01" cType="1" res="1.3337381824385375e-04" rms="7.9332590103149414e-02" purity="2.1278992295265198e-01" nType="0">
          <Node pos="l" depth="2" NCoef="0" IVar="11" Cut="1.6302470862865448e-01" cType="1" res="0.0000000000000000e+00" rms="0.0000000000000000e+00" purity="9.2479996383190155e-02" nType="0">
            <Node pos="l" depth="3" NCoef="0" IVar="-1" Cut="0.0000000000000000e+00" cType="1" res="-3.0876291915774345e-02" rms="2.1479061245918274e-01" purity="4.9013577401638031e-02" nType="-99"/>
            <Node pos="r" depth="3" NCoef="0" IVar="-1" Cut="0.0000000000000000e+00" cType="1" res="-1.6593994572758675e-02" rms="3.6778831481933594e-01" purity="1.6944873332977295e-01" nType="-99"/>
          </Node>
          <Node pos="r" depth="2" NCoef="0" IVar="5" Cut="1.7305895996093750e+02" cType="1" res="2.7526760823093355e-04" rms="9.8866611719131470e-02" purity="3.4078529477119446e-01" nType="0">
            <Node pos="l" depth="3" NCoef="0" IVar="-1" Cut="0.0000000000000000e+00" cType="1" res="-1.6074171289801598e-02" rms="3.9948570728302002e-01" purity="2.1511399745941162e-01" nType="-99"/>
            <Node pos="r" depth="3" NCoef="0" IVar="-1" Cut="0.0000000000000000e+00" cType="1" res="2.1366758737713099e-03" rms="4.8299521207809448e-01" purity="4.7494152188301086e-01" nType="-99"/>
          </Node>
        </Node>
        <Node pos="r" depth="1" NCoef="0" IVar="12" Cut="3.9021812379360199e-02" cType="1" res="1.2566002260427922e-04" rms="3.6416086554527283e-01" purity="7.6661723852157593e-01" nType="0">
          <Node pos="l" depth="2" NCoef="0" IVar="1" Cut="2.1576188964843750e+03" cType="1" res="3.1319027766585350e-04" rms="2.9548346996307373e-01" purity="5.9284907579421997e-01" nType="0">
            <Node pos="l" depth="3" NCoef="0" IVar="-1" Cut="0.0000000000000000e+00" cType="1" res="-7.1401456370949745e-03" rms="4.6982115507125854e-01" purity="4.1804233193397522e-01" nType="-99"/>
            <Node pos="r" depth="3" NCoef="0" IVar="-1" Cut="0.0000000000000000e+00" cType="1" res="1.0907552205026150e-02" rms="4.3097808957099915e-01" purity="7.2285801172256470e-01" nType="-99"/>
          </Node>
          <Node pos="r" depth="2" NCoef="0" IVar="13" Cut="2.9926607012748718e-01" cType="1" res="2.0986211893614382e-04" rms="3.8485914468765259e-01" purity="8.8305556774139404e-01" nType="0">
            <Node pos="l" depth="3" NCoef="0" IVar="-1" Cut="0.0000000000000000e+00" cType="1" res="1.0581991635262966e-02" rms="4.2686468362808228e-01" purity="7.4684679508209229e-01" nType="-99"/>
            <Node pos="r" depth="3" NCoef="0" IVar="-1" Cut="0.0000000000000000e+00" cType="1" res="1.9437829032540321e-02" rms="2.7164667844772339e-01" purity="9.1625577211380005e-01" nType="-99"/>
          </Node>
        </Node>
      </Node>
    </BinaryTree>
    <BinaryTree type="DecisionTree" boostWeight="1.0000000000000000e+00" itree="12">
      <Node pos="s" depth="0" NCoef="0" IVar="1" Cut="1.8157008056640625e+03" cType="1" res="1.8618752062320709e-01" rms="0.0000000000000000e+00" purity="5.0363314151763916e-01" nType="0">
        <Node pos="l" depth="1" NCoef="0" IVar="11" Cut="3.3489140868186951e-01" cType="1" res="1.4107595779933035e-04" rms="7.9007163643836975e-02" purity="2.0190440118312836e-01" nType="0">
          <Node pos="l" depth="2" NCoef="0" IVar="5" Cut="1.5918023681640625e+02" cType="1" res="0.0000000000000000e+00" rms="0.0000000000000000e+00" purity="1.1780749261379242e-01" nType="0">
            <Node pos="l" depth="3" NCoef="0" IVar="-1" Cut="0.0000000000000000e+00" cType="1" res="-2.7933109551668167e-02" rms="2.3617859184741974e-01" purity="6.2005061656236649e-02" nType="-99"/>
            <Node pos="r" depth="3" NCoef="0" IVar="-1" Cut="0.0000000000000000e+00" cType="1" res="-1.8612822517752647e-02" rms="3.8431134819984436e-01" purity="1.9667427241802216e-01" nType="-99"/>
          </Node>
          <Node pos="r" depth="2" NCoef="0" IVar="1" Cut="1.6175700683593750e+03" cType="1" res="3.9676795131526887e-04" rms="9.6710696816444397e-02" purity="3.5432517528533936e-01" nType="0">
            <Node pos="l" depth="3" NCoef="0" IVar="-1" Cut="0.0000000000000000e+00" cType="1" res="-1.3806259259581566e-02" rms="4.1660520434379578e-01" purity="2.3296290636062622e-01" nType="-99"/>
            <Node pos="r" depth="3" NCoef="0" IVar="-1" Cut="0.0000000000000000e+00" cType="1" res="4.3221055530011654e-03" rms="4.8778787255287170e-01" purity="5.2317392826080322e-01" nType="-99"/>
          </Node>
        </Node>
        <Node pos="r" depth="1" NCoef="0" IVar="11" Cut="2.1609801054000854e-01" cType="1" res="1.9087110459804535e-01" rms="0.0000000000000000e+00" purity="7.6374858617782593e-01" nType="0">
          <Node pos="l" depth="2" NCoef="0" IVar="11" Cut="9.3679510056972504e-02" cType="1" res="5.8413960505276918e-04" rms="2.6555523276329041e-01" purity="4.5459336042404175e-01" nType="0">
            <Node pos="l" depth="3" NCoef="0" IVar="-1" Cut="0.0000000000000000e+00" cType="1" res="-2.7495214715600014e-02" rms="3.8983950018882751e-01" purity="2.1421481668949127e-01" nType="-99"/>
            <Node pos="r" depth="3" NCoef="0" IVar="-1" Cut="0.0000000000000000e+00" cType="1" res="4.0226373821496964e-03" rms="4.7216832637786865e-01" purity="5.5938857793807983e-01" nType="-99"/>
          </Node>
          <Node pos="r" depth="2" NCoef="0" IVar="5" Cut="1.7244371032714844e+02" cType="1" res="1.8355707824230194e-01" rms="0.0000000000000000e+00" purity="8.4504073858261108e-01" nType="0">
            <Node pos="l" depth="3" NCoef="0" IVar="-1" Cut="0.0000000000000000e+00" cType="1" res="6.0705207288265228e-03" rms="4.6598619222640991e-01" purity="6.3751673698425293e-01" nType="-99"/>
            <Node pos="r" depth="3" NCoef="0" IVar="-1" Cut="0.0000000000000000e+00" cType="1" res="1.7595965415239334e-02" rms="3.1263345479965210e-01" purity="8.8425648212432861e-01" nType="-99"/>
          </Node>
        </Node>
      </Node>
    </BinaryTree>
    <BinaryTree type="DecisionTree" boostWeight="1.0000000000000000e+00" itree="13">
      <Node pos="s" depth="0" NCoef="0" IVar="1" Cut="1.8157008056640625e+03" cType="1" res="1.8299193680286407e-01" rms="0.0000000000000000e+00" purity="4.9354901909828186e-01" nType="0">
        <Node pos="l" depth="1" NCoef="0" IVar="11" Cut="2.1994610130786896e-01" cType="1" res="1.3772556849289685e-04" rms="7.4895001947879791e-02" purity="2.0128092169761658e-01" nType="0">
          <Node pos="l" depth="2" NCoef="0" IVar="11" Cut="9.4972267746925354e-02" cType="1" res="3.0201111803762615e-04" rms="4.8165280371904373e-02" purity="7.0819951593875885e-02" nType="0">
            <Node pos="l" depth="3" NCoef="0" IVar="-1" Cut="0.0000000000000000e+00" cType="1" res="-1.5511866658926010e-02" rms="1.2585987150669098e-01" purity="1.6144454479217529e-02" nType="-99"/>
            <Node pos="r" depth="3" NCoef="0" IVar="-1" Cut="0.0000000000000000e+00" cType="1" res="-2.1402414888143539e-02" rms="3.1213471293449402e-01" purity="1.1364838480949402e-01" nType="-99"/>
          </Node>
          <Node pos="r" depth="2" NCoef="0" IVar="5" Cut="1.9089164733886719e+02" cType="1" res="0.0000000000000000e+00" rms="9.1470189392566681e-02" purity="3.1065031886100769e-01" nType="0">
            <Node pos="l" depth="3" NCoef="0" IVar="-1" Cut="0.0000000000000000e+00" cType="1" res="-1.3581421226263046e-02" rms="4.0501517057418823e-01" purity="2.2456993162631989e-01" nType="-99"/>
            <Node pos="r" depth="3" NCoef="0" IVar="-1" Cut="0.0000000000000000e+00" cType="1" res="2.0781273487955332e-03" rms="4.8351109027862549e-01" purity="4.6214833855628967e-01" nType="-99"/>
          </Node>
        </Node>
        <Node pos="r" depth="1" NCoef="0" IVar="12" Cut="4.2091369628906250e-02" cType="1" res="1.8891605734825134e-01" rms="0.0000000000000000e+00" purity="7.5857698917388916e-01" nType="0">
          <Node pos="l" depth="2" NCoef="0" IVar="1" Cut="2.1817536621093750e+03" cType="1" res="2.9107191949151456e-04" rms="3.0975469946861267e-01" purity="5.8658820390701294e-01" nType="0">
            <Node pos="l" depth="3" NCoef="0" IVar="-1" Cut="0.0000000000000000e+00" cType="1" res="-6.1778840608894825e-03" rms="4.6551573276519775e-01" purity="4.2491215467453003e-01" nType="-99"/>
            <Node pos="r" depth="3" NCoef="0" IVar="-1" Cut="0.0000000000000000e+00" cType="1" res="1.0290557518601418e-02" rms="4.2765727639198303e-01" purity="7.3060119152069092e-01" nType="-99"/>
          </Node>
          <Node pos="r" depth="2" NCoef="0" IVar="1" Cut="2.0039313964843750e+03" cType="1" res="1.7055989801883698e-01" rms="0.0000000000000000e+00" purity="8.8782966136932373e-01" nType="0">
            <Node pos="l" depth="3" NCoef="0" IVar="-1" Cut="0.0000000000000000e+00" cType="1" res="1.0940471664071083e-02" rms="4.3970519304275513e-01" purity="7.2591447830200195e-01" nType="-99"/>
            <Node pos="r" depth="3" NCoef="0" IVar="-1" Cut="0.0000000000000000e+00" cType="1" res="1.8703408539295197e-02" rms="2.6054650545120239e-01" purity="9.2479842901229858e-01" nType="-99"/>
          </Node>
        </Node>
      </Node>
    </BinaryTree>
    <BinaryTree type="DecisionTree" boostWeight="1.0000000000000000e+00" itree="14">
      <Node pos="s" depth="0" NCoef="0" IVar="1" Cut="1.8584375000000000e+03" cType="1" res="6.5031090343836695e-05" rms="2.0228154957294464e-01" purity="5.0469505786895752e-01" nType="0">
        <Node pos="l" depth="1" NCoef="0" IVar="12" Cut="4.1757319122552872e-02" cType="1" res="1.3184269482735544e-04" rms="7.6111145317554474e-02" purity="2.1997998654842377e-01" nType="0">
          <Node pos="l" depth="2" NCoef="0" IVar="1" Cut="1.6619606933593750e+03" cType="1" res="2.0163167209830135e-04" rms="6.1975579708814621e-02" purity="1.2094341963529587e-01" nType="0">
            <Node pos="l" depth="3" NCoef="0" IVar="-1" Cut="0.0000000000000000e+00" cType="1" res="-2.4793764576315880e-02" rms="2.6938524842262268e-01" purity="8.1294842064380646e-02" nType="-99"/>
            <Node pos="r" depth="3" NCoef="0" IVar="-1" Cut="0.0000000000000000e+00" cType="1" res="-1.6863713040947914e-02" rms="4.0796616673469543e-01" purity="2.2427855432033539e-01" nType="-99"/>
          </Node>
          <Node pos="r" depth="2" NCoef="0" IVar="1" Cut="1.6619737548828125e+03" cType="1" res="3.8091494934633374e-04" rms="9.7366593778133392e-02" purity="4.0707617998123169e-01" nType="0">
            <Node pos="l" depth="3" NCoef="0" IVar="-1" Cut="0.0000000000000000e+00" cType="1" res="-1.0881012305617332e-02" rms="4.3850827217102051e-01" purity="2.7361682057380676e-01" nType="-99"/>
            <Node pos="r" depth="3" NCoef="0" IVar="-1" Cut="0.0000000000000000e+00" cType="1" res="8.3741080015897751e-03" rms="4.7753065824508667e-01" purity="6.1976987123489380e-01" nType="-99"/>
          </Node>
        </Node>
        <Node pos="r" depth="1" NCoef="0" IVar="12" Cut="2.0633777603507042e-02" cType="1" res="1.2832913489546627e-04" rms="3.8085138797760010e-01" purity="7.8182244300842285e-01" nType="0">
          <Node pos="l" depth="2" NCoef="0" IVar="13" Cut="4.4877037405967712e-01" cType="1" res="5.1621760940179229e-04" rms="3.1108176708221436e-01" purity="5.3746598958969116e-01" nType="0">
            <Node pos="l" depth="3" NCoef="0" IVar="-1" Cut="0.0000000000000000e+00" cType="1" res="-1.5477981418371201e-02" rms="4.3922069668769836e-01" purity="3.2758921384811401e-01" nType="-99"/>
            <Node pos="r" depth="3" NCoef="0" IVar="-1" Cut="0.0000000000000000e+00" cType="1" res="7.6544038020074368e-03" rms="4.5955878496170044e-01" purity="6.2338215112686157e-01" nType="-99"/>
          </Node>
          <Node pos="r" depth="2" NCoef="0" IVar="1" Cut="2.0658447265625000e+03" cType="1" res="1.7078556993510574e-04" rms="3.8912388682365417e-01" purity="8.6266547441482544e-01" nType="0">
            <Node pos="l" depth="3" NCoef="0" IVar="-1" Cut="0.0000000000000000e+00" cType="1" res="8.6797401309013367e-03" rms="4.4624716043472290e-01" purity="6.9307798147201538e-01" nType="-99"/>
            <Node pos="r" depth="3" NCoef="0" IVar="-1" Cut="0.0000000000000000e+00" cType="1" res="1.7651103436946869e-02" rms="2.8078415989875793e-01" purity="9.1007244586944580e-01" nType="-99"/>
          </Node>
        </Node>
      </Node>
    </BinaryTree>
    <BinaryTree type="DecisionTree" boostWeight="1.0000000000000000e+00" itree="15">
      <Node pos="s" depth="0" NCoef="0" IVar="1" Cut="2.0876486816406250e+03" cType="1" res="6.5673695644363761e-05" rms="2.0590592920780182e-01" purity="5.0046128034591675e-01" nType="0">
        <Node pos="l" depth="1" NCoef="0" IVar="5" Cut="1.8063423156738281e+02" cType="1" res="1.0294298408553004e-04" rms="8.5299432277679443e-02" purity="3.0418178439140320e-01" nType="0">
          <Node pos="l" depth="2" NCoef="0" IVar="12" Cut="7.3241308331489563e-02" cType="1" res="0.0000000000000000e+00" rms="8.4646895527839661e-02" purity="1.7546841502189636e-01" nType="0">
            <Node pos="l" depth="3" NCoef="0" IVar="-1" Cut="0.0000000000000000e+00" cType="1" res="-2.0977854728698730e-02" rms="3.2664382457733154e-01" purity="1.3888323307037354e-01" nType="-99"/>
            <Node pos="r" depth="3" NCoef="0" IVar="-1" Cut="0.0000000000000000e+00" cType="1" res="-3.1150369904935360e-03" rms="4.6543306112289429e-01" purity="4.2024528980255127e-01" nType="-99"/>
          </Node>
          <Node pos="r" depth="2" NCoef="0" IVar="11" Cut="2.6086530089378357e-01" cType="1" res="2.4240904895123094e-04" rms="8.6175411939620972e-02" purity="4.7856128215789795e-01" nType="0">
            <Node pos="l" depth="3" NCoef="0" IVar="-1" Cut="0.0000000000000000e+00" cType="1" res="-1.4694862067699432e-02" rms="3.9930090308189392e-01" purity="2.4237775802612305e-01" nType="-99"/>
            <Node pos="r" depth="3" NCoef="0" IVar="-1" Cut="0.0000000000000000e+00" cType="1" res="8.4356237202882767e-03" rms="4.5851451158523560e-01" purity="6.0946518182754517e-01" nType="-99"/>
          </Node>
        </Node>
        <Node pos="r" depth="1" NCoef="0" IVar="11" Cut="2.7074840664863586e-01" cType="1" res="1.8139994062948972e-04" rms="4.4960042834281921e-01" purity="8.4633332490921021e-01" nType="0">
          <Node pos="l" depth="2" NCoef="0" IVar="13" Cut="4.4879725575447083e-01" cType="1" res="7.0955388946458697e-04" rms="3.5229665040969849e-01" purity="6.6092371940612793e-01" nType="0">
            <Node pos="l" depth="3" NCoef="0" IVar="-1" Cut="0.0000000000000000e+00" cType="1" res="-7.0227854885160923e-03" rms="4.7826942801475525e-01" purity="4.5782938599586487e-01" nType="-99"/>
            <Node pos="r" depth="3" NCoef="0" IVar="-1" Cut="0.0000000000000000e+00" cType="1" res="1.1387778446078300e-02" rms="4.1788440942764282e-01" purity="7.3712915182113647e-01" nType="-99"/>
          </Node>
          <Node pos="r" depth="2" NCoef="0" IVar="13" Cut="2.9926607012748718e-01" cType="1" res="2.4370363098569214e-04" rms="4.6832892298698425e-01" purity="9.1001427173614502e-01" nType="0">
            <Node pos="l" depth="3" NCoef="0" IVar="-1" Cut="0.0000000000000000e+00" cType="1" res="1.2151763774454594e-02" rms="3.8764762878417969e-01" purity="8.0893439054489136e-01" nType="-99"/>
            <Node pos="r" depth="3" NCoef="0" IVar="-1" Cut="0.0000000000000000e+00" cType="1" res="1.8301751464605331e-02" rms="2.4645297229290009e-01" purity="9.3259435892105103e-01" nType="-99"/>
          </Node>
        </Node>
      </Node>
    </BinaryTree>
    <BinaryTree type="DecisionTree" boostWeight="1.0000000000000000e+00" itree="16">
      <Node pos="s" depth="0" NCoef="0" IVar="1" Cut="2.0235433349609375e+03" cType="1" res="0.0000000000000000e+00" rms="1.3009895570576191e-02" purity="4.9726852774620056e-01" nType="0">
        <Node pos="l" depth="1" NCoef="0" IVar="1" Cut="1.6375300292968750e+03" cType="1" res="1.0805892088683322e-04" rms="7.6073393225669861e-02" purity="2.7609950304031372e-01" nType="0">
          <Node pos="l" depth="2" NCoef="0" IVar="12" Cut="3.5064302384853363e-02" cType="1" res="2.0251923706382513e-04" rms="5.9104036539793015e-02" purity="1.3159753382205963e-01" nType="0">
            <Node pos="l" depth="3" NCoef="0" IVar="-1" Cut="0.0000000000000000e+00" cType="1" res="-2.4671498686075211e-02" rms="2.4647335708141327e-01" purity="6.6571474075317383e-02" nType="-99"/>
            <Node pos="r" depth="3" NCoef="0" IVar="-1" Cut="0.0000000000000000e+00" cType="1" res="-1.1680013500154018e-02" rms="4.2158177495002747e-01" purity="2.4563984572887421e-01" nType="-99"/>
          </Node>
          <Node pos="r" depth="2" NCoef="0" IVar="3" Cut="5.8296282958984375e+02" cType="1" res="2.3167413019109517e-04" rms="1.2764151394367218e-01" purity="4.4140410423278809e-01" nType="0">
            <Node pos="l" depth="3" NCoef="0" IVar="-1" Cut="0.0000000000000000e+00" cType="1" res="6.9577344693243504e-03" rms="4.6148151159286499e-01" purity="5.6223064661026001e-01" nType="-99"/>
            <Node pos="r" depth="3" NCoef="0" IVar="-1" Cut="0.0000000000000000e+00" cType="1" res="-2.1028487011790276e-02" rms="3.9017730951309204e-01" purity="2.3859602212905884e-01" nType="-99"/>
          </Node>
        </Node>
        <Node pos="r" depth="1" NCoef="0" IVar="12" Cut="3.9021965116262436e-02" cType="1" res="1.6826319694519043e-01" rms="0.0000000000000000e+00" purity="8.3241540193557739e-01" nType="0">
          <Node pos="l" depth="2" NCoef="0" IVar="5" Cut="1.5242759704589844e+02" cType="1" res="4.4405879452824593e-04" rms="3.7513324618339539e-01" purity="6.7619347572326660e-01" nType="0">
            <Node pos="l" depth="3" NCoef="0" IVar="-1" Cut="0.0000000000000000e+00" cType="1" res="-5.7985722087323666e-03" rms="4.7482293844223022e-01" purity="4.5785135030746460e-01" nType="-99"/>
            <Node pos="r" depth="3" NCoef="0" IVar="-1" Cut="0.0000000000000000e+00" cType="1" res="1.1146417818963528e-02" rms="4.1458410024642944e-01" purity="7.4768799543380737e-01" nType="-99"/>
          </Node>
          <Node pos="r" depth="2" NCoef="0" IVar="13" Cut="4.4918063282966614e-01" cType="1" res="1.4650273323059082e-01" rms="0.0000000000000000e+00" purity="9.2367333173751831e-01" nType="0">
            <Node pos="l" depth="3" NCoef="0" IVar="-1" Cut="0.0000000000000000e+00" cType="1" res="1.4513284899294376e-02" rms="3.4494879841804504e-01" purity="8.5679924488067627e-01" nType="-99"/>
            <Node pos="r" depth="3" NCoef="0" IVar="-1" Cut="0.0000000000000000e+00" cType="1" res="1.8702836707234383e-02" rms="2.2244773805141449e-01" purity="9.4679564237594604e-01" nType="-99"/>
          </Node>
        </Node>
      </Node>
    </BinaryTree>
    <BinaryTree type="DecisionTree" boostWeight="1.0000000000000000e+00" itree="17">
      <Node pos="s" depth="0" NCoef="0" IVar="1" Cut="1.9627342529296875e+03" cType="1" res="1.6986221075057983e-01" rms="0.0000000000000000e+00" purity="5.0533556938171387e-01" nType="0">
        <Node pos="l" depth="1" NCoef="0" IVar="12" Cut="8.3513937890529633e-02" cType="1" res="1.1515826190588996e-04" rms="7.3817417025566101e-02" purity="2.5305309891700745e-01" nType="0">
          <Node pos="l" depth="2" NCoef="0" IVar="13" Cut="5.9840530157089233e-01" cType="1" res="1.3876958109904081e-04" rms="6.6595487296581268e-02" purity="1.9007322192192078e-01" nType="0">
            <Node pos="l" depth="3" NCoef="0" IVar="-1" Cut="0.0000000000000000e+00" cType="1" res="-2.1276798099279404e-02" rms="2.8735417127609253e-01" purity="1.0626997053623199e-01" nType="-99"/>
            <Node pos="r" depth="3" NCoef="0" IVar="-1" Cut="0.0000000000000000e+00" cType="1" res="-1.1481175199151039e-02" rms="4.0007519721984863e-01" purity="2.4866296350955963e-01" nType="-99"/>
          </Node>
          <Node pos="r" depth="2" NCoef="0" IVar="1" Cut="1.5608084716796875e+03" cType="1" res="6.7681359359994531e-04" rms="1.0195253044366837e-01" purity="5.6022149324417114e-01" nType="0">
            <Node pos="l" depth="3" NCoef="0" IVar="-1" Cut="0.0000000000000000e+00" cType="1" res="-8.1631699576973915e-03" rms="4.4892868399620056e-01" purity="2.8499257564544678e-01" nType="-99"/>
            <Node pos="r" depth="3" NCoef="0" IVar="-1" Cut="0.0000000000000000e+00" cType="1" res="1.0772721841931343e-02" rms="4.5490527153015137e-01" purity="6.7541509866714478e-01" nType="-99"/>
          </Node>
        </Node>
        <Node pos="r" depth="1" NCoef="0" IVar="11" Cut="1.8142971396446228e-01" cType="1" res="1.6717039048671722e-01" rms="0.0000000000000000e+00" purity="8.2227504253387451e-01" nType="0">
          <Node pos="l" depth="2" NCoef="0" IVar="12" Cut="1.1542760767042637e-02" cType="1" res="9.9812587723135948e-04" rms="2.6878976821899414e-01" purity="5.0116056203842163e-01" nType="0">
            <Node pos="l" depth="3" NCoef="0" IVar="-1" Cut="0.0000000000000000e+00" cType="1" res="-1.1408437043428421e-02" rms="4.5381322503089905e-01" purity="3.4688702225685120e-01" nType="-99"/>
            <Node pos="r" depth="3" NCoef="0" IVar="-1" Cut="0.0000000000000000e+00" cType="1" res="7.8101642429828644e-03" rms="4.5901837944984436e-01" purity="6.3312876224517822e-01" nType="-99"/>
          </Node>
          <Node pos="r" depth="2" NCoef="0" IVar="13" Cut="2.9923900961875916e-01" cType="1" res="1.5823100507259369e-01" rms="0.0000000000000000e+00" purity="8.7670832872390747e-01" nType="0">
            <Node pos="l" depth="3" NCoef="0" IVar="-1" Cut="0.0000000000000000e+00" cType="1" res="8.9519005268812180e-03" rms="4.1887262463569641e-01" purity="7.5355654954910278e-01" nType="-99"/>
            <Node pos="r" depth="3" NCoef="0" IVar="-1" Cut="0.0000000000000000e+00" cType="1" res="1.7006449401378632e-02" rms="2.8409281373023987e-01" purity="9.0461039543151855e-01" nType="-99"/>
          </Node>
        </Node>
      </Node>
    </BinaryTree>
    <BinaryTree type="DecisionTree" boostWeight="1.0000000000000000e+00" itree="18">
      <Node pos="s" depth="0" NCoef="0" IVar="1" Cut="1.9780411376953125e+03" cType="1" res="6.4797764935065061e-05" rms="1.7960746586322784e-01" purity="4.9892684817314148e-01" nType="0">
        <Node pos="l" depth="1" NCoef="0" IVar="1" Cut="1.6752535400390625e+03" cType="1" res="1.1239013110753149e-04" rms="7.8573688864707947e-02" purity="2.6537996530532837e-01" nType="0">
          <Node pos="l" depth="2" NCoef="0" IVar="12" Cut="8.7671071290969849e-02" cType="1" res="1.8270337022840977e-04" rms="6.6776424646377563e-02" purity="1.4841905236244202e-01" nType="0">
            <Node pos="l" depth="3" NCoef="0" IVar="-1" Cut="0.0000000000000000e+00" cType="1" res="-1.9139457494020462e-02" rms="3.0779379606246948e-01" purity="1.1474390327930450e-01" nType="-99"/>
            <Node pos="r" depth="3" NCoef="0" IVar="-1" Cut="0.0000000000000000e+00" cType="1" res="-3.3019988331943750e-03" rms="4.7531226277351379e-01" purity="3.7749126553535461e-01" nType="-99"/>
          </Node>
          <Node pos="r" depth="2" NCoef="0" IVar="3" Cut="6.2896972656250000e+02" cType="1" res="2.9203685699030757e-04" rms="1.4416612684726715e-01" purity="4.5233270525932312e-01" nType="0">
            <Node pos="l" depth="3" NCoef="0" IVar="-1" Cut="0.0000000000000000e+00" cType="1" res="6.5247747115790844e-03" rms="4.6308723092079163e-01" purity="5.5681091547012329e-01" nType="-99"/>
            <Node pos="r" depth="3" NCoef="0" IVar="-1" Cut="0.0000000000000000e+00" cType="1" res="-2.7913792058825493e-02" rms="3.6207988858222961e-01" purity="1.7913018167018890e-01" nType="-99"/>
          </Node>
        </Node>
        <Node pos="r" depth="1" NCoef="0" IVar="11" Cut="1.3625162839889526e-01" cType="1" res="1.5302097017411143e-04" rms="3.8562577962875366e-01" purity="8.1690466403961182e-01" nType="0">
          <Node pos="l" depth="2" NCoef="0" IVar="-1" Cut="0.0000000000000000e+00" cType="1" res="-7.2013819590210915e-03" rms="4.6250849962234497e-01" purity="4.1179952025413513e-01" nType="-99"/>
          <Node pos="r" depth="2" NCoef="0" IVar="5" Cut="1.6041650390625000e+02" cType="1" res="1.6918059554882348e-04" rms="3.9670512080192566e-01" purity="8.5968542098999023e-01" nType="0">
            <Node pos="l" depth="3" NCoef="0" IVar="-1" Cut="0.0000000000000000e+00" cType="1" res="4.1429395787417889e-03" rms="4.6461045742034912e-01" purity="6.3474482297897339e-01" nType="-99"/>
            <Node pos="r" depth="3" NCoef="0" IVar="-1" Cut="0.0000000000000000e+00" cType="1" res="1.5786394476890564e-02" rms="3.0230602622032166e-01" purity="8.9058905839920044e-01" nType="-99"/>
          </Node>
        </Node>
      </Node>
    </BinaryTree>
    <BinaryTree type="DecisionTree" boostWeight="1.0000000000000000e+00" itree="19">
      <Node pos="s" depth="0" NCoef="0" IVar="1" Cut="1.8381876220703125e+03" cType="1" res="6.4755651692394167e-05" rms="1.9306614995002747e-01" purity="4.9526718258857727e-01" nType="0">
        <Node pos="l" depth="1" NCoef="0" IVar="5" Cut="1.7847366333007812e+02" cType="1" res="1.3294929522089660e-04" rms="6.9309763610363007e-02" purity="2.0670619606971741e-01" nType="0">
          <Node pos="l" depth="2" NCoef="0" IVar="11" Cut="4.8245185613632202e-01" cType="1" res="2.1076913981232792e-04" rms="6.7888662219047546e-02" purity="1.2368255108594894e-01" nType="0">
            <Node pos="l" depth="3" NCoef="0" IVar="-1" Cut="0.0000000000000000e+00" cType="1" res="-2.0324585959315300e-02" rms="2.8461456298828125e-01" purity="9.6969649195671082e-02" nType="-99"/>
            <Node pos="r" depth="3" NCoef="0" IVar="-1" Cut="0.0000000000000000e+00" cType="1" res="-7.8620044514536858e-03" rms="4.3131613731384277e-01" purity="2.8895792365074158e-01" nType="-99"/>
          </Node>
          <Node pos="r" depth="2" NCoef="0" IVar="11" Cut="3.7828338146209717e-01" cType="1" res="3.6008309689350426e-04" rms="7.1671344339847565e-02" purity="3.4854578971862793e-01" nType="0">
            <Node pos="l" depth="3" NCoef="0" IVar="-1" Cut="0.0000000000000000e+00" cType="1" res="-1.2420043349266052e-02" rms="3.9910358190536499e-01" purity="2.2844567894935608e-01" nType="-99"/>
            <Node pos="r" depth="3" NCoef="0" IVar="-1" Cut="0.0000000000000000e+00" cType="1" res="7.3686512187123299e-03" rms="4.7515136003494263e-01" purity="5.4044777154922485e-01" nType="-99"/>
          </Node>
        </Node>
        <Node pos="r" depth="1" NCoef="0" IVar="12" Cut="2.0620796829462051e-02" cType="1" res="1.2624663941096514e-04" rms="3.6888465285301208e-01" purity="7.6928031444549561e-01" nType="0">
          <Node pos="l" depth="2" NCoef="0" IVar="13" Cut="2.9913046956062317e-01" cType="1" res="5.0995720084756613e-04" rms="2.7989432215690613e-01" purity="5.0800132751464844e-01" nType="0">
            <Node pos="l" depth="3" NCoef="0" IVar="-1" Cut="0.0000000000000000e+00" cType="1" res="-2.0651793107390404e-02" rms="4.1083762049674988e-01" purity="2.6605793833732605e-01" nType="-99"/>
            <Node pos="r" depth="3" NCoef="0" IVar="-1" Cut="0.0000000000000000e+00" cType="1" res="4.6363254077732563e-03" rms="4.5618790388107300e-01" purity="5.7960528135299683e-01" nType="-99"/>
          </Node>
          <Node pos="r" depth="2" NCoef="0" IVar="13" Cut="2.9923281073570251e-01" cType="1" res="1.6778371355030686e-04" rms="3.8343438506126404e-01" purity="8.5524511337280273e-01" nType="0">
            <Node pos="l" depth="3" NCoef="0" IVar="-1" Cut="0.0000000000000000e+00" cType="1" res="5.6229163892567158e-03" rms="4.4056099653244019e-01" purity="6.9556236267089844e-01" nType="-99"/>
            <Node pos="r" depth="3" NCoef="0" IVar="-1" Cut="0.0000000000000000e+00" cType="1" res="1.6305604949593544e-02" rms="2.9681912064552307e-01" purity="8.9113235473632812e-01" nType="-99"/>
          </Node>
        </Node>
      </Node>
    </BinaryTree>
    <BinaryTree type="DecisionTree" boostWeight="1.0000000000000000e+00" itree="20">
      <Node pos="s" depth="0" NCoef="0" IVar="1" Cut="1.9888607177734375e+03" cType="1" res="1.6349521279335022e-01" rms="0.0000000000000000e+00" purity="5.0226855278015137e-01" nType="0">
        <Node pos="l" depth="1" NCoef="0" IVar="11" Cut="2.1982595324516296e-01" cType="1" res="1.1177067790413275e-04" rms="8.3747431635856628e-02" purity="2.6455205678939819e-01" nType="0">
          <Node pos="l" depth="2" NCoef="0" IVar="1" Cut="1.7364013671875000e+03" cType="1" res="0.0000000000000000e+00" rms="5.2542306482791901e-02" purity="9.8851852118968964e-02" nType="0">
            <Node pos="l" depth="3" NCoef="0" IVar="-1" Cut="0.0000000000000000e+00" cType="1" res="-2.2667415440082550e-02" rms="2.3804703354835510e-01" purity="6.2808662652969360e-02" nType="-99"/>
            <Node pos="r" depth="3" NCoef="0" IVar="-1" Cut="0.0000000000000000e+00" cType="1" res="-1.7918687313795090e-02" rms="3.9846062660217285e-01" purity="2.2199232876300812e-01" nType="-99"/>
          </Node>
          <Node pos="r" depth="2" NCoef="0" IVar="1" Cut="1.6804130859375000e+03" cType="1" res="1.9377050921320915e-04" rms="1.0066656023263931e-01" purity="3.8611695170402527e-01" nType="0">
            <Node pos="l" depth="3" NCoef="0" IVar="-1" Cut="0.0000000000000000e+00" cType="1" res="-1.0969852097332478e-02" rms="4.0675029158592224e-01" purity="2.3256558179855347e-01" nType="-99"/>
            <Node pos="r" depth="3" NCoef="0" IVar="-1" Cut="0.0000000000000000e+00" cType="1" res="6.1003272421658039e-03" rms="4.6891987323760986e-01" purity="5.8635300397872925e-01" nType="-99"/>
          </Node>
        </Node>
        <Node pos="r" depth="1" NCoef="0" IVar="12" Cut="2.0620957016944885e-02" cType="1" res="1.5794859826564789e-01" rms="0.0000000000000000e+00" purity="8.2776439189910889e-01" nType="0">
          <Node pos="l" depth="2" NCoef="0" IVar="5" Cut="1.4564572143554688e+02" cType="1" res="6.7956646671518683e-04" rms="3.1853434443473816e-01" purity="5.9817475080490112e-01" nType="0">
            <Node pos="l" depth="3" NCoef="0" IVar="-1" Cut="0.0000000000000000e+00" cType="1" res="-1.0894433595240116e-02" rms="4.6785324811935425e-01" purity="3.8652876019477844e-01" nType="-99"/>
            <Node pos="r" depth="3" NCoef="0" IVar="-1" Cut="0.0000000000000000e+00" cType="1" res="8.7236277759075165e-03" rms="4.3659067153930664e-01" purity="6.8809342384338379e-01" nType="-99"/>
          </Node>
          <Node pos="r" depth="2" NCoef="0" IVar="13" Cut="2.9954901337623596e-01" cType="1" res="1.4216831326484680e-01" rms="0.0000000000000000e+00" purity="8.9449858665466309e-01" nType="0">
            <Node pos="l" depth="3" NCoef="0" IVar="-1" Cut="0.0000000000000000e+00" cType="1" res="9.6274511888623238e-03" rms="4.0614563226699829e-01" purity="7.7650213241577148e-01" nType="-99"/>
            <Node pos="r" depth="3" NCoef="0" IVar="-1" Cut="0.0000000000000000e+00" cType="1" res="1.6704959794878960e-02" rms="2.6080417633056641e-01" purity="9.2232096195220947e-01" nType="-99"/>
          </Node>
        </Node>
      </Node>
    </BinaryTree>
    <BinaryTree type="DecisionTree" boostWeight="1.0000000000000000e+00" itree="21">
      <Node pos="s" depth="0" NCoef="0" IVar="1" Cut="1.8584378662109375e+03" cType="1" res="1.6089105606079102e-01" rms="0.0000000000000000e+00" purity="4.9887913465499878e-01" nType="0">
        <Node pos="l" depth="1" NCoef="0" IVar="11" Cut="3.8966992497444153e-01" cType="1" res="1.2902273738291115e-04" rms="6.9947816431522369e-02" purity="2.2143255174160004e-01" nType="0">
          <Node pos="l" depth="2" NCoef="0" IVar="1" Cut="1.6183077392578125e+03" cType="1" res="1.8045745673589408e-04" rms="6.3304997980594635e-02" purity="1.4172556996345520e-01" nType="0">
            <Node pos="l" depth="3" NCoef="0" IVar="-1" Cut="0.0000000000000000e+00" cType="1" res="-2.1542623639106750e-02" rms="2.6055175065994263e-01" purity="7.7541820704936981e-02" nType="-99"/>
            <Node pos="r" depth="3" NCoef="0" IVar="-1" Cut="0.0000000000000000e+00" cType="1" res="-6.1396164819598198e-03" rms="4.0713924169540405e-01" purity="2.4907238781452179e-01" nType="-99"/>
          </Node>
          <Node pos="r" depth="2" NCoef="0" IVar="1" Cut="1.5746513671875000e+03" cType="1" res="4.5267320820130408e-04" rms="8.4338068962097168e-02" purity="4.2137560248374939e-01" nType="0">
            <Node pos="l" depth="3" NCoef="0" IVar="-1" Cut="0.0000000000000000e+00" cType="1" res="-1.1365881189703941e-02" rms="4.0748664736747742e-01" purity="2.2490991652011871e-01" nType="-99"/>
            <Node pos="r" depth="3" NCoef="0" IVar="-1" Cut="0.0000000000000000e+00" cType="1" res="8.0062327906489372e-03" rms="4.7009521722793579e-01" purity="5.6380915641784668e-01" nType="-99"/>
          </Node>
        </Node>
        <Node pos="r" depth="1" NCoef="0" IVar="11" Cut="2.2860318422317505e-01" cType="1" res="1.6445709764957428e-01" rms="0.0000000000000000e+00" purity="7.7891254425048828e-01" nType="0">
          <Node pos="l" depth="2" NCoef="0" IVar="12" Cut="1.5613897703588009e-02" cType="1" res="5.6077336193993688e-04" rms="2.6916596293449402e-01" purity="5.1828384399414062e-01" nType="0">
            <Node pos="l" depth="3" NCoef="0" IVar="-1" Cut="0.0000000000000000e+00" cType="1" res="-1.1932413093745708e-02" rms="4.4224303960800171e-01" purity="3.4341859817504883e-01" nType="-99"/>
            <Node pos="r" depth="3" NCoef="0" IVar="-1" Cut="0.0000000000000000e+00" cType="1" res="7.7697299420833588e-03" rms="4.3928322196006775e-01" purity="6.7041128873825073e-01" nType="-99"/>
          </Node>
          <Node pos="r" depth="2" NCoef="0" IVar="5" Cut="2.4332722473144531e+02" cType="1" res="1.5201304852962494e-01" rms="0.0000000000000000e+00" purity="8.5774362087249756e-01" nType="0">
            <Node pos="l" depth="3" NCoef="0" IVar="-1" Cut="0.0000000000000000e+00" cType="1" res="9.8977377638220787e-03" rms="4.0522542595863342e-01" purity="7.6355010271072388e-01" nType="-99"/>
            <Node pos="r" depth="3" NCoef="0" IVar="-1" Cut="0.0000000000000000e+00" cType="1" res="1.6373541206121445e-02" rms="2.6653203368186951e-01" purity="9.1917669773101807e-01" nType="-99"/>
          </Node>
        </Node>
      </Node>
    </BinaryTree>
    <BinaryTree type="DecisionTree" boostWeight="1.0000000000000000e+00" itree="22">
      <Node pos="s" depth="0" NCoef="0" IVar="1" Cut="1.8584375000000000e+03" cType="1" res="6.4843050495255738e-05" rms="2.0592345297336578e-01" purity="5.0220352411270142e-01" nType="0">
        <Node pos="l" depth="1" NCoef="0" IVar="11" Cut="2.5838705897331238e-01" cType="1" res="1.2925463670399040e-04" rms="7.6220698654651642e-02" purity="2.2437286376953125e-01" nType="0">
          <Node pos="l" depth="2" NCoef="0" IVar="11" Cut="1.1135758459568024e-01" cType="1" res="4.4873970909975469e-04" rms="1.2209994345903397e-01" purity="9.5177657902240753e-02" nType="0">
            <Node pos="l" depth="3" NCoef="0" IVar="-1" Cut="0.0000000000000000e+00" cType="1" res="-9.8474333062767982e-03" rms="1.7280901968479156e-01" purity="3.1510401517152786e-02" nType="-99"/>
            <Node pos="r" depth="3" NCoef="0" IVar="-1" Cut="0.0000000000000000e+00" cType="1" res="-1.5657324343919754e-02" rms="3.4163406491279602e-01" purity="1.4760106801986694e-01" nType="-99"/>
          </Node>
          <Node pos="r" depth="2" NCoef="0" IVar="5" Cut="1.8891056823730469e+02" cType="1" res="2.6842523948289454e-04" rms="9.3815393745899200e-02" purity="3.6347949504852295e-01" nType="0">
            <Node pos="l" depth="3" NCoef="0" IVar="-1" Cut="0.0000000000000000e+00" cType="1" res="-1.0439725592732430e-02" rms="4.0818282961845398e-01" purity="2.4332831799983978e-01" nType="-99"/>
            <Node pos="r" depth="3" NCoef="0" IVar="-1" Cut="0.0000000000000000e+00" cType="1" res="7.4787396006286144e-03" rms="4.7263610363006592e-01" purity="5.3815937042236328e-01" nType="-99"/>
          </Node>
        </Node>
        <Node pos="r" depth="1" NCoef="0" IVar="11" Cut="2.7102288603782654e-01" cType="1" res="1.3012044655624777e-04" rms="3.8319340348243713e-01" purity="7.8189522027969360e-01" nType="0">
          <Node pos="l" depth="2" NCoef="0" IVar="1" Cut="2.4013618164062500e+03" cType="1" res="4.6017061686143279e-04" rms="3.0967316031455994e-01" purity="5.5769538879394531e-01" nType="0">
            <Node pos="l" depth="3" NCoef="0" IVar="-1" Cut="0.0000000000000000e+00" cType="1" res="-6.6687553189694881e-03" rms="4.5595890283584595e-01" purity="4.3662551045417786e-01" nType="-99"/>
            <Node pos="r" depth="3" NCoef="0" IVar="-1" Cut="0.0000000000000000e+00" cType="1" res="1.1577690020203590e-02" rms="3.9611989259719849e-01" purity="7.7312636375427246e-01" nType="-99"/>
          </Node>
          <Node pos="r" depth="2" NCoef="0" IVar="5" Cut="1.4774024963378906e+02" cType="1" res="1.8141971668228507e-04" rms="4.0156078338623047e-01" purity="8.7028473615646362e-01" nType="0">
            <Node pos="l" depth="3" NCoef="0" IVar="-1" Cut="0.0000000000000000e+00" cType="1" res="1.5731098828837276e-03" rms="4.7033110260963440e-01" purity="6.0924512147903442e-01" nType="-99"/>
            <Node pos="r" depth="3" NCoef="0" IVar="-1" Cut="0.0000000000000000e+00" cType="1" res="1.5299692749977112e-02" rms="2.9653447866439819e-01" purity="8.9504486322402954e-01" nType="-99"/>
          </Node>
        </Node>
      </Node>
    </BinaryTree>
    <BinaryTree type="DecisionTree" boostWeight="1.0000000000000000e+00" itree="23">
      <Node pos="s" depth="0" NCoef="0" IVar="1" Cut="2.0876484375000000e+03" cType="1" res="6.5147607529070228e-05" rms="2.0249298214912415e-01" purity="4.9612560868263245e-01" nType="0">
        <Node pos="l" depth="1" NCoef="0" IVar="11" Cut="3.0529189109802246e-01" cType="1" res="1.0193836351390928e-04" rms="8.5353218019008636e-02" purity="2.9541665315628052e-01" nType="0">
          <Node pos="l" depth="2" NCoef="0" IVar="11" Cut="1.3144570589065552e-01" cType="1" res="1.8469317001290619e-04" rms="6.8627819418907166e-02" purity="1.5264454483985901e-01" nType="0">
            <Node pos="l" depth="3" NCoef="0" IVar="-1" Cut="0.0000000000000000e+00" cType="1" res="-1.1594032868742943e-02" rms="2.1196097135543823e-01" purity="5.0543665885925293e-02" nType="-99"/>
            <Node pos="r" depth="3" NCoef="0" IVar="-1" Cut="0.0000000000000000e+00" cType="1" res="-1.1805642396211624e-02" rms="3.9114740490913391e-01" purity="2.3409718275070190e-01" nType="-99"/>
          </Node>
          <Node pos="r" depth="2" NCoef="0" IVar="1" Cut="1.6619685058593750e+03" cType="1" res="2.2750729112885892e-04" rms="1.0226193815469742e-01" purity="4.7128510475158691e-01" nType="0">
            <Node pos="l" depth="3" NCoef="0" IVar="-1" Cut="0.0000000000000000e+00" cType="1" res="-8.6586726829409599e-03" rms="4.1939094662666321e-01" purity="2.5071269273757935e-01" nType="-99"/>
            <Node pos="r" depth="3" NCoef="0" IVar="-1" Cut="0.0000000000000000e+00" cType="1" res="8.1304758787155151e-03" rms="4.4736307859420776e-01" purity="6.5533304214477539e-01" nType="-99"/>
          </Node>
        </Node>
        <Node pos="r" depth="1" NCoef="0" IVar="12" Cut="2.0157538354396820e-02" cType="1" res="1.8050838843919337e-04" rms="4.5386195182800293e-01" purity="8.5153293609619141e-01" nType="0">
          <Node pos="l" depth="2" NCoef="0" IVar="3" Cut="8.2033721923828125e+02" cType="1" res="0.0000000000000000e+00" rms="6.7949908971786499e-01" purity="6.2920975685119629e-01" nType="0">
            <Node pos="l" depth="3" NCoef="0" IVar="-1" Cut="0.0000000000000000e+00" cType="1" res="1.2504487298429012e-02" rms="4.0463629364967346e-01" purity="7.5304287672042847e-01" nType="-99"/>
            <Node pos="r" depth="3" NCoef="0" IVar="-1" Cut="0.0000000000000000e+00" cType="1" res="-4.2285420931875706e-03" rms="4.6688756346702576e-01" purity="5.0458836555480957e-01" nType="-99"/>
          </Node>
          <Node pos="r" depth="2" NCoef="0" IVar="13" Cut="2.9916962981224060e-01" cType="1" res="2.3023408721201122e-04" rms="4.6915024518966675e-01" purity="9.1277760267257690e-01" nType="0">
            <Node pos="l" depth="3" NCoef="0" IVar="-1" Cut="0.0000000000000000e+00" cType="1" res="1.0896154679358006e-02" rms="3.7971416115760803e-01" purity="8.1596994400024414e-01" nType="-99"/>
            <Node pos="r" depth="3" NCoef="0" IVar="-1" Cut="0.0000000000000000e+00" cType="1" res="1.6507402062416077e-02" rms="2.4155333638191223e-01" purity="9.3527472019195557e-01" nType="-99"/>
          </Node>
        </Node>
      </Node>
    </BinaryTree>
    <BinaryTree type="DecisionTree" boostWeight="1.0000000000000000e+00" itree="24">
      <Node pos="s" depth="0" NCoef="0" IVar="1" Cut="2.0572734375000000e+03" cType="1" res="6.5064064983744174e-05" rms="1.9711518287658691e-01" purity="5.0329375267028809e-01" nType="0">
        <Node pos="l" depth="1" NCoef="0" IVar="11" Cut="3.9481827616691589e-01" cType="1" res="1.0550357546890154e-04" rms="8.4651604294776917e-02" purity="2.9179021716117859e-01" nType="0">
          <Node pos="l" depth="2" NCoef="0" IVar="13" Cut="4.4889318943023682e-01" cType="1" res="1.5345196879934520e-04" rms="8.1092678010463715e-02" purity="1.9243931770324707e-01" nType="0">
            <Node pos="l" depth="3" NCoef="0" IVar="-1" Cut="0.0000000000000000e+00" cType="1" res="-2.2978454828262329e-02" rms="2.7685415744781494e-01" purity="9.6319213509559631e-02" nType="-99"/>
            <Node pos="r" depth="3" NCoef="0" IVar="-1" Cut="0.0000000000000000e+00" cType="1" res="-1.0005660355091095e-02" rms="3.8491839170455933e-01" purity="2.4445235729217529e-01" nType="-99"/>
          </Node>
          <Node pos="r" depth="2" NCoef="0" IVar="1" Cut="1.5251992187500000e+03" cType="1" res="3.3764910767786205e-04" rms="9.1998323798179626e-02" purity="5.1039767265319824e-01" nType="0">
            <Node pos="l" depth="3" NCoef="0" IVar="-1" Cut="0.0000000000000000e+00" cType="1" res="-1.0781169869005680e-02" rms="3.9022728800773621e-01" purity="1.9668623805046082e-01" nType="-99"/>
            <Node pos="r" depth="3" NCoef="0" IVar="-1" Cut="0.0000000000000000e+00" cType="1" res="7.8115975484251976e-03" rms="4.5269924402236938e-01" purity="6.0541385412216187e-01" nType="-99"/>
          </Node>
        </Node>
        <Node pos="r" depth="1" NCoef="0" IVar="12" Cut="2.1051699295639992e-02" cType="1" res="1.6974714526440948e-04" rms="4.4003990292549133e-01" purity="8.4358668327331543e-01" nType="0">
          <Node pos="l" depth="2" NCoef="0" IVar="13" Cut="5.9875094890594482e-01" cType="1" res="7.7761366264894605e-04" rms="3.3556726574897766e-01" purity="6.0290032625198364e-01" nType="0">
            <Node pos="l" depth="3" NCoef="0" IVar="-1" Cut="0.0000000000000000e+00" cType="1" res="-9.8090730607509613e-03" rms="4.6339452266693115e-01" purity="4.2726635932922363e-01" nType="-99"/>
            <Node pos="r" depth="3" NCoef="0" IVar="-1" Cut="0.0000000000000000e+00" cType="1" res="8.3901593461632729e-03" rms="4.3247231841087341e-01" purity="6.9218403100967407e-01" nType="-99"/>
          </Node>
          <Node pos="r" depth="2" NCoef="0" IVar="12" Cut="4.1113331913948059e-02" cType="1" res="2.1714915055781603e-04" rms="4.5634484291076660e-01" purity="9.1079860925674438e-01" nType="0">
            <Node pos="l" depth="3" NCoef="0" IVar="-1" Cut="0.0000000000000000e+00" cType="1" res="1.0567046701908112e-02" rms="3.7439408898353577e-01" purity="8.1518155336380005e-01" nType="-99"/>
            <Node pos="r" depth="3" NCoef="0" IVar="-1" Cut="0.0000000000000000e+00" cType="1" res="1.6049759462475777e-02" rms="2.4171142280101776e-01" purity="9.3545168638229370e-01" nType="-99"/>
          </Node>
        </Node>
      </Node>
    </BinaryTree>
    <BinaryTree type="DecisionTree" boostWeight="1.0000000000000000e+00" itree="25">
      <Node pos="s" depth="0" NCoef="0" IVar="1" Cut="2.0572810058593750e+03" cType="1" res="1.5546643733978271e-01" rms="0.0000000000000000e+00" purity="5.0176352262496948e-01" nType="0">
        <Node pos="l" depth="1" NCoef="0" IVar="12" Cut="5.7292442768812180e-02" cType="1" res="1.0403300257166848e-04" rms="8.2234747707843781e-02" purity="2.9403167963027954e-01" nType="0">
          <Node pos="l" depth="2" NCoef="0" IVar="13" Cut="4.4876670837402344e-01" cType="1" res="1.4492514310404658e-04" rms="7.0704087615013123e-02" purity="1.9747902452945709e-01" nType="0">
            <Node pos="l" depth="3" NCoef="0" IVar="-1" Cut="0.0000000000000000e+00" cType="1" res="-2.0529706031084061e-02" rms="2.7425673604011536e-01" purity="9.4326548278331757e-02" nType="-99"/>
            <Node pos="r" depth="3" NCoef="0" IVar="-1" Cut="0.0000000000000000e+00" cType="1" res="-6.5259430557489395e-03" rms="3.9198949933052063e-01" purity="2.5103697180747986e-01" nType="-99"/>
          </Node>
          <Node pos="r" depth="2" NCoef="0" IVar="13" Cut="4.4870281219482422e-01" cType="1" res="3.6870152689516544e-04" rms="1.0606061667203903e-01" purity="5.3966963291168213e-01" nType="0">
            <Node pos="l" depth="3" NCoef="0" IVar="-1" Cut="0.0000000000000000e+00" cType="1" res="-9.4536934047937393e-03" rms="4.4111764430999756e-01" purity="3.7170740962028503e-01" nType="-99"/>
            <Node pos="r" depth="3" NCoef="0" IVar="-1" Cut="0.0000000000000000e+00" cType="1" res="9.4296652823686600e-03" rms="4.4090300798416138e-01" purity="6.1547535657882690e-01" nType="-99"/>
          </Node>
        </Node>
        <Node pos="r" depth="1" NCoef="0" IVar="11" Cut="2.2467160224914551e-01" cType="1" res="1.4252138137817383e-01" rms="0.0000000000000000e+00" purity="8.4145933389663696e-01" nType="0">
          <Node pos="l" depth="2" NCoef="0" IVar="2" Cut="3.0913665890693665e-01" cType="1" res="8.5007236339151859e-04" rms="3.3409479260444641e-01" purity="6.0497498512268066e-01" nType="0">
            <Node pos="l" depth="3" NCoef="0" IVar="-1" Cut="0.0000000000000000e+00" cType="1" res="-8.4248129278421402e-03" rms="4.5529162883758545e-01" purity="4.7222965955734253e-01" nType="-99"/>
            <Node pos="r" depth="3" NCoef="0" IVar="-1" Cut="0.0000000000000000e+00" cType="1" res="9.1469027101993561e-03" rms="4.3477976322174072e-01" purity="6.8200492858886719e-01" nType="-99"/>
          </Node>
          <Node pos="r" depth="2" NCoef="0" IVar="13" Cut="2.9973095655441284e-01" cType="1" res="1.2617391347885132e-01" rms="0.0000000000000000e+00" purity="9.0062677860260010e-01" nType="0">
            <Node pos="l" depth="3" NCoef="0" IVar="-1" Cut="0.0000000000000000e+00" cType="1" res="7.2371312417089939e-03" rms="4.0902918577194214e-01" purity="7.7050888538360596e-01" nType="-99"/>
            <Node pos="r" depth="3" NCoef="0" IVar="-1" Cut="0.0000000000000000e+00" cType="1" res="1.5746327117085457e-02" rms="2.5186082720756531e-01" purity="9.2768126726150513e-01" nType="-99"/>
          </Node>
        </Node>
      </Node>
    </BinaryTree>
    <BinaryTree type="DecisionTree" boostWeight="1.0000000000000000e+00" itree="26">
      <Node pos="s" depth="0" NCoef="0" IVar="1" Cut="1.7925789794921875e+03" cType="1" res="0.0000000000000000e+00" rms="1.1647462997643743e-05" purity="4.9865433573722839e-01" nType="0">
        <Node pos="l" depth="1" NCoef="0" IVar="13" Cut="5.9839195013046265e-01" cType="1" res="1.4433411706704646e-04" rms="7.2565101087093353e-02" purity="1.9474512338638306e-01" nType="0">
          <Node pos="l" depth="2" NCoef="0" IVar="11" Cut="4.9818322062492371e-01" cType="1" res="3.5114705679006875e-04" rms="4.0997892618179321e-02" purity="1.1268770694732666e-01" nType="0">
            <Node pos="l" depth="3" NCoef="0" IVar="-1" Cut="0.0000000000000000e+00" cType="1" res="-1.9403861835598946e-02" rms="2.6632001996040344e-01" purity="8.4796674549579620e-02" nType="-99"/>
            <Node pos="r" depth="3" NCoef="0" IVar="-1" Cut="0.0000000000000000e+00" cType="1" res="-9.9881011992692947e-03" rms="4.3030256032943726e-01" purity="2.9181966185569763e-01" nType="-99"/>
          </Node>
          <Node pos="r" depth="2" NCoef="0" IVar="6" Cut="1.2605917358398438e+02" cType="1" res="2.4506446789018810e-04" rms="8.8133148849010468e-02" purity="2.5201275944709778e-01" nType="0">
            <Node pos="l" depth="3" NCoef="0" IVar="-1" Cut="0.0000000000000000e+00" cType="1" res="-1.3461797498166561e-02" rms="3.5805734992027283e-01" purity="1.7895095050334930e-01" nType="-99"/>
            <Node pos="r" depth="3" NCoef="0" IVar="-1" Cut="0.0000000000000000e+00" cType="1" res="8.5979811847209930e-03" rms="4.6102413535118103e-01" purity="4.6122604608535767e-01" nType="-99"/>
          </Node>
        </Node>
        <Node pos="r" depth="1" NCoef="0" IVar="5" Cut="1.9638822937011719e+02" cType="1" res="1.1930435721296817e-04" rms="3.2884481549263000e-01" purity="7.4986100196838379e-01" nType="0">
          <Node pos="l" depth="2" NCoef="0" IVar="12" Cut="2.1470654755830765e-02" cType="1" res="4.0015781996771693e-04" rms="3.3155515789985657e-01" purity="5.3108185529708862e-01" nType="0">
            <Node pos="l" depth="3" NCoef="0" IVar="-1" Cut="0.0000000000000000e+00" cType="1" res="-1.1928225867450237e-02" rms="4.3781399726867676e-01" purity="3.3988988399505615e-01" nType="-99"/>
            <Node pos="r" depth="3" NCoef="0" IVar="-1" Cut="0.0000000000000000e+00" cType="1" res="7.4447118677198887e-03" rms="4.2265552282333374e-01" purity="7.0196825265884399e-01" nType="-99"/>
          </Node>
          <Node pos="r" depth="2" NCoef="0" IVar="13" Cut="2.9923507571220398e-01" cType="1" res="1.6998391947709024e-04" rms="3.1288999319076538e-01" purity="8.4279668331146240e-01" nType="0">
            <Node pos="l" depth="3" NCoef="0" IVar="-1" Cut="0.0000000000000000e+00" cType="1" res="2.5779488496482372e-03" rms="4.3726280331611633e-01" purity="6.5935933589935303e-01" nType="-99"/>
            <Node pos="r" depth="3" NCoef="0" IVar="-1" Cut="0.0000000000000000e+00" cType="1" res="1.4923756942152977e-02" rms="2.9596543312072754e-01" purity="8.8297992944717407e-01" nType="-99"/>
          </Node>
        </Node>
      </Node>
    </BinaryTree>
    <BinaryTree type="DecisionTree" boostWeight="1.0000000000000000e+00" itree="27">
      <Node pos="s" depth="0" NCoef="0" IVar="1" Cut="2.0876489257812500e+03" cType="1" res="1.5146069228649139e-01" rms="0.0000000000000000e+00" purity="5.0151300430297852e-01" nType="0">
        <Node pos="l" depth="1" NCoef="0" IVar="5" Cut="1.6580339050292969e+02" cType="1" res="1.0239140829071403e-04" rms="8.4830075502395630e-02" purity="3.0066147446632385e-01" nType="0">
          <Node pos="l" depth="2" NCoef="0" IVar="5" Cut="1.2726503753662109e+02" cType="1" res="2.0283025514800102e-04" rms="8.2149714231491089e-02" purity="1.5526206791400909e-01" nType="0">
            <Node pos="l" depth="3" NCoef="0" IVar="-1" Cut="0.0000000000000000e+00" cType="1" res="-2.0408798009157181e-02" rms="2.7972397208213806e-01" purity="1.0114500671625137e-01" nType="-99"/>
            <Node pos="r" depth="3" NCoef="0" IVar="-1" Cut="0.0000000000000000e+00" cType="1" res="-9.4740595668554306e-03" rms="3.7938413023948669e-01" purity="2.2427409887313843e-01" nType="-99"/>
          </Node>
          <Node pos="r" depth="2" NCoef="0" IVar="13" Cut="4.4882443547248840e-01" cType="1" res="2.0677334396168590e-04" rms="8.7477676570415497e-02" purity="4.4888752698898315e-01" nType="0">
            <Node pos="l" depth="3" NCoef="0" IVar="-1" Cut="0.0000000000000000e+00" cType="1" res="-1.2515178881585598e-02" rms="3.9922532439231873e-01" purity="2.7463248372077942e-01" nType="-99"/>
            <Node pos="r" depth="3" NCoef="0" IVar="-1" Cut="0.0000000000000000e+00" cType="1" res="6.9090235047042370e-03" rms="4.3666914105415344e-01" purity="5.2937859296798706e-01" nType="-99"/>
          </Node>
        </Node>
        <Node pos="r" depth="1" NCoef="0" IVar="11" Cut="1.3803583383560181e-01" cType="1" res="1.3600778579711914e-01" rms="0.0000000000000000e+00" purity="8.5268551111221313e-01" nType="0">
          <Node pos="l" depth="2" NCoef="0" IVar="-1" Cut="0.0000000000000000e+00" cType="1" res="-2.0086423028260469e-03" rms="4.7111549973487854e-01" purity="4.9366223812103271e-01" nType="-99"/>
          <Node pos="r" depth="2" NCoef="0" IVar="2" Cut="2.4807339906692505e-01" cType="1" res="1.2784524261951447e-01" rms="0.0000000000000000e+00" purity="8.8659709692001343e-01" nType="0">
            <Node pos="l" depth="3" NCoef="0" IVar="-1" Cut="0.0000000000000000e+00" cType="1" res="6.5698758698999882e-03" rms="3.9355075359344482e-01" purity="7.8548347949981689e-01" nType="-99"/>
            <Node pos="r" depth="3" NCoef="0" IVar="-1" Cut="0.0000000000000000e+00" cType="1" res="1.4625024981796741e-02" rms="2.7986350655555725e-01" purity="9.0481412410736084e-01" nType="-99"/>
          </Node>
        </Node>
      </Node>
    </BinaryTree>
    <BinaryTree type="DecisionTree" boostWeight="1.0000000000000000e+00" itree="28">
      <Node pos="s" depth="0" NCoef="0" IVar="1" Cut="1.8381872558593750e+03" cType="1" res="6.4820167608559132e-05" rms="2.0062692463397980e-01" purity="5.0624954700469971e-01" nType="0">
        <Node pos="l" depth="1" NCoef="0" IVar="12" Cut="7.3241308331489563e-02" cType="1" res="1.3495408347807825e-04" rms="8.3222851157188416e-02" purity="2.1543067693710327e-01" nType="0">
          <Node pos="l" depth="2" NCoef="0" IVar="3" Cut="5.7337518310546875e+02" cType="1" res="1.6579641669522971e-04" rms="7.8612960875034332e-02" purity="1.5379345417022705e-01" nType="0">
            <Node pos="l" depth="3" NCoef="0" IVar="-1" Cut="0.0000000000000000e+00" cType="1" res="-1.0274969972670078e-02" rms="3.7267711758613586e-01" purity="1.9612374901771545e-01" nType="-99"/>
            <Node pos="r" depth="3" NCoef="0" IVar="-1" Cut="0.0000000000000000e+00" cType="1" res="-2.5712875649333000e-02" rms="2.3861418664455414e-01" purity="6.6748291254043579e-02" nType="-99"/>
          </Node>
          <Node pos="r" depth="2" NCoef="0" IVar="13" Cut="4.4870528578758240e-01" cType="1" res="7.2546064620837569e-04" rms="1.0094501823186874e-01" purity="4.8513132333755493e-01" nType="0">
            <Node pos="l" depth="3" NCoef="0" IVar="-1" Cut="0.0000000000000000e+00" cType="1" res="-9.7082853317260742e-03" rms="4.3704032897949219e-01" purity="3.0772557854652405e-01" nType="-99"/>
            <Node pos="r" depth="3" NCoef="0" IVar="-1" Cut="0.0000000000000000e+00" cType="1" res="9.8932944238185883e-03" rms="4.6498316526412964e-01" purity="5.6821155548095703e-01" nType="-99"/>
          </Node>
        </Node>
        <Node pos="r" depth="1" NCoef="0" IVar="12" Cut="1.9097771495580673e-02" cType="1" res="1.2472919479478151e-04" rms="3.6668330430984497e-01" purity="7.7503430843353271e-01" nType="0">
          <Node pos="l" depth="2" NCoef="0" IVar="1" Cut="2.3252766113281250e+03" cType="1" res="5.5371964117512107e-04" rms="0.0000000000000000e+00" purity="5.0864410400390625e-01" nType="0">
            <Node pos="l" depth="3" NCoef="0" IVar="-1" Cut="0.0000000000000000e+00" cType="1" res="-8.4828948602080345e-03" rms="4.4307273626327515e-01" purity="3.7804931402206421e-01" nType="-99"/>
            <Node pos="r" depth="3" NCoef="0" IVar="-1" Cut="0.0000000000000000e+00" cType="1" res="8.6626941338181496e-03" rms="4.2710974812507629e-01" purity="7.1704387664794922e-01" nType="-99"/>
          </Node>
          <Node pos="r" depth="2" NCoef="0" IVar="13" Cut="2.9945942759513855e-01" cType="1" res="1.6099427011795342e-04" rms="3.8141724467277527e-01" purity="8.5248738527297974e-01" nType="0">
            <Node pos="l" depth="3" NCoef="0" IVar="-1" Cut="0.0000000000000000e+00" cType="1" res="3.9036090020090342e-03" rms="4.3100804090499878e-01" purity="6.9599539041519165e-01" nType="-99"/>
            <Node pos="r" depth="3" NCoef="0" IVar="-1" Cut="0.0000000000000000e+00" cType="1" res="1.4176310040056705e-02" rms="2.9580089449882507e-01" purity="8.8863110542297363e-01" nType="-99"/>
          </Node>
        </Node>
      </Node>
    </BinaryTree>
    <BinaryTree type="DecisionTree" boostWeight="1.0000000000000000e+00" itree="29">
      <Node pos="s" depth="0" NCoef="0" IVar="1" Cut="2.0572731933593750e+03" cType="1" res="6.5063497459050268e-05" rms="1.9805154204368591e-01" purity="5.0119394063949585e-01" nType="0">
        <Node pos="l" depth="1" NCoef="0" IVar="11" Cut="2.5447764992713928e-01" cType="1" res="1.0605747957015410e-04" rms="7.8804478049278259e-02" purity="2.8554096817970276e-01" nType="0">
          <Node pos="l" depth="2" NCoef="0" IVar="11" Cut="1.3395622372627258e-01" cType="1" res="2.2445930517278612e-04" rms="5.0131756812334061e-02" purity="1.2213928252458572e-01" nType="0">
            <Node pos="l" depth="3" NCoef="0" IVar="-1" Cut="0.0000000000000000e+00" cType="1" res="-2.6189250871539116e-02" rms="2.0962274074554443e-01" purity="4.9507234245538712e-02" nType="-99"/>
            <Node pos="r" depth="3" NCoef="0" IVar="-1" Cut="0.0000000000000000e+00" cType="1" res="-1.0700425133109093e-02" rms="3.7679511308670044e-01" purity="2.0479440689086914e-01" nType="-99"/>
          </Node>
          <Node pos="r" depth="2" NCoef="0" IVar="13" Cut="4.4867730140686035e-01" cType="1" res="2.0105759904254228e-04" rms="9.7578667104244232e-02" purity="4.3190672993659973e-01" nType="0">
            <Node pos="l" depth="3" NCoef="0" IVar="-1" Cut="0.0000000000000000e+00" cType="1" res="-1.2423612177371979e-02" rms="4.0600267052650452e-01" purity="2.6769217848777771e-01" nType="-99"/>
            <Node pos="r" depth="3" NCoef="0" IVar="-1" Cut="0.0000000000000000e+00" cType="1" res="4.9781328998506069e-03" rms="4.3998557329177856e-01" purity="5.0550484657287598e-01" nType="-99"/>
          </Node>
        </Node>
        <Node pos="r" depth="1" NCoef="0" IVar="5" Cut="2.1173219299316406e+02" cType="1" res="1.6832888650242239e-04" rms="4.2642372846603394e-01" purity="8.4346699714660645e-01" nType="0">
          <Node pos="l" depth="2" NCoef="0" IVar="12" Cut="1.9390603527426720e-02" cType="1" res="5.9969362337142229e-04" rms="3.8934171199798584e-01" purity="6.8679392337799072e-01" nType="0">
            <Node pos="l" depth="3" NCoef="0" IVar="-1" Cut="0.0000000000000000e+00" cType="1" res="-3.6525987088680267e-03" rms="4.6756255626678467e-01" purity="4.8897117376327515e-01" nType="-99"/>
            <Node pos="r" depth="3" NCoef="0" IVar="-1" Cut="0.0000000000000000e+00" cType="1" res="9.6813859418034554e-03" rms="3.7375015020370483e-01" purity="8.1763553619384766e-01" nType="-99"/>
          </Node>
          <Node pos="r" depth="2" NCoef="0" IVar="2" Cut="2.7760565280914307e-01" cType="1" res="2.3401486396323889e-04" rms="4.1748499870300293e-01" purity="9.0460467338562012e-01" nType="0">
            <Node pos="l" depth="3" NCoef="0" IVar="-1" Cut="0.0000000000000000e+00" cType="1" res="9.4190267845988274e-03" rms="3.5826089978218079e-01" purity="8.2420533895492554e-01" nType="-99"/>
            <Node pos="r" depth="3" NCoef="0" IVar="-1" Cut="0.0000000000000000e+00" cType="1" res="1.5863426029682159e-02" rms="2.2991779446601868e-01" purity="9.3905937671661377e-01" nType="-99"/>
          </Node>
        </Node>
      </Node>
